{"learner":{"attributes":{"scikit_learn":"{\"use_label_encoder\": true, \"n_estimators\": 50, \"objective\": \"binary:logistic\", \"max_depth\": null, \"learning_rate\": null, \"verbosity\": null, \"booster\": null, \"tree_method\": null, \"gamma\": null, \"min_child_weight\": null, \"max_delta_step\": null, \"subsample\": null, \"colsample_bytree\": null, \"colsample_bylevel\": null, \"colsample_bynode\": null, \"reg_alpha\": null, \"reg_lambda\": null, \"scale_pos_weight\": null, \"base_score\": null, \"missing\": NaN, \"num_parallel_tree\": null, \"kwargs\": {}, \"random_state\": null, \"n_jobs\": null, \"monotone_constraints\": null, \"interaction_constraints\": null, \"importance_type\": \"gain\", \"gpu_id\": null, \"validate_parameters\": null, \"classes_\": [0, 1], \"n_classes_\": 2, \"_le\": {\"classes_\": [0, 1]}, \"_features_count\": 8, \"n_features_in_\": 8, \"_estimator_type\": \"classifier\"}"},"feature_names":[],"feature_types":[],"gradient_booster":{"model":{"gbtree_model_param":{"num_trees":"50","size_leaf_vector":"0"},"tree_info":[0,0,0,0,0,0,0,0,0,0,0,0,0,0,0,0,0,0,0,0,0,0,0,0,0,0,0,0,0,0,0,0,0,0,0,0,0,0,0,0,0,0,0,0,0,0,0,0,0,0],"trees":[{"base_weights":[2.8144988E-1,-1.1323701E0,1.6738461E0,1.0565372E0,-1.7516274E0,1.6988401E0,5.2991456E-1,-2.4593967E-1,1.8468086E0,-1.9060297E0,1.8323354E0,1.3875598E0,1.7252301E0,1.7419355E0,8.888889E-2,1.4666667E0,-1.0133333E0,1.8986588E0,7.368421E-1,1.5555556E0,-1.9203563E0,1.7186544E0,1.8947369E-1,1.7934328E0,1.5478523E0,-6.666667E-1,7.755102E-1,5.6E-1,1.9101124E0,-1.7755102E0,4.074074E-1,-1E0,1.6923077E0,1.1111112E0,-1.9254985E0,6.086956E-1,1.7792208E0,1.2413793E0,-1.3170732E0,4E-1,1.7975441E0,9.811321E-1,1.6496872E0,1.5384616E-1,-8.888889E-1,1.7037038E0,-3.0769232E-1,1.6363636E0,-2.5E-1,-0E0,-1.8913044E0,-5.762712E-1,1.4716982E0,-0E0,-1.3333334E0,-1.9294552E0,-5.882353E-1,-6.666667E-1,1.4666667E0,7.2727275E-1,1.8344828E0,-1.2727273E0,1.6862745E0,-1.6756756E0,1E0,1.2727273E0,-1E0,1.8966908E0,1.7357415E0,1.7142857E0,1.5384616E-1,9.4736844E-1,1.7224975E0,-0E0,2.2222222E-1,-1.5384616E-1,-1.1111112E0,-8.5714287E-1,1.1111112E0],"categories":[],"categories_nodes":[],"categories_segments":[],"categories_sizes":[],"default_left":[true,true,true,true,true,true,true,true,true,true,false,true,true,false,true,true,true,false,true,false,true,true,true,true,true,true,true,true,false,true,true,true,false,false,true,true,true,true,true,true,true,true,true,true,true,false,true,false,false,false,false,false,false,false,false,false,false,false,false,false,false,false,false,false,false,false,false,false,false,false,false,false,false,false,false,false,false,false,false],"id":0,"left_children":[1,3,5,7,9,11,13,15,17,19,-1,21,23,-1,25,27,29,-1,31,-1,33,35,37,39,41,43,45,47,-1,49,51,53,-1,-1,55,57,59,61,63,65,67,69,71,73,75,-1,77,-1,-1,-1,-1,-1,-1,-1,-1,-1,-1,-1,-1,-1,-1,-1,-1,-1,-1,-1,-1,-1,-1,-1,-1,-1,-1,-1,-1,-1,-1,-1,-1],"loss_changes":[5.0798936E3,1.7375642E3,3.6268555E1,2.9174896E2,5.560344E2,8.053223E0,1.5480231E1,1.4309595E2,8.744507E0,5.048462E1,0E0,4.112741E1,1.1356934E1,0E0,1.21895685E1,1.2499779E1,8.193753E1,0E0,1.745749E1,0E0,1.7014404E1,4.412735E0,3.9272682E1,4.0791016E0,1.7527344E1,2.188034E0,1.2840631E1,1.1307273E1,0E0,1.0074081E1,2.9114935E1,1.3333335E0,0E0,0E0,3.9077148E0,7.2695646E0,3.142044E0,1.8364618E1,1.0192486E1,5.8545456E0,1.8227539E0,3.1882233E1,1.2673462E1,3.4188032E-2,1.2991452E0,0E0,6.019536E0,0E0,0E0,0E0,0E0,0E0,0E0,0E0,0E0,0E0,0E0,0E0,0E0,0E0,0E0,0E0,0E0,0E0,0E0,0E0,0E0,0E0,0E0,0E0,0E0,0E0,0E0,0E0,0E0,0E0,0E0,0E0,0E0],"parents":[2147483647,0,0,1,1,2,2,3,3,4,4,5,5,6,6,7,7,8,8,9,9,11,11,12,12,14,14,15,15,16,16,18,18,20,20,21,21,22,22,23,23,24,24,25,25,26,26,27,27,29,29,30,30,31,31,34,34,35,35,36,36,37,37,38,38,39,39,40,40,41,41,42,42,43,43,44,44,46,46],"right_children":[2,4,6,8,10,12,14,16,18,20,-1,22,24,-1,26,28,30,-1,32,-1,34,36,38,40,42,44,46,48,-1,50,52,54,-1,-1,56,58,60,62,64,66,68,70,72,74,76,-1,78,-1,-1,-1,-1,-1,-1,-1,-1,-1,-1,-1,-1,-1,-1,-1,-1,-1,-1,-1,-1,-1,-1,-1,-1,-1,-1,-1,-1,-1,-1,-1,-1],"split_conditions":[3.5E0,1.7991667E1,2.3308334E1,1.65E1,1.8991667E1,1.925E0,1.05E1,1.2108334E1,1.5135E3,1.5E0,5.497006E-1,1.885E3,1.5141666E1,5.225807E-1,1.35E1,3.005E2,1.235E1,5.6959766E-1,1.515E3,4.666667E-1,1.615E2,4.5E0,1.725E0,1.2E1,3.075E2,6.245E2,9.45E1,2.5E0,5.7303375E-1,1.7125E3,5E-1,6.075E0,5.0769234E-1,3.3333337E-1,1.8891666E1,3.495E2,1E1,1.8885E3,8.9E1,1.4208334E1,8.041667E0,3.01E2,1.56E1,2.3441666E1,2.3416666E1,5.1111114E-1,2.3783333E1,4.909091E-1,-7.5E-2,-0E0,-5.6739134E-1,-1.7288136E-1,4.4150946E-1,-0E0,-4.0000004E-1,-5.7883656E-1,-1.7647061E-1,-2.0000002E-1,4.4000003E-1,2.1818183E-1,5.503449E-1,-3.818182E-1,5.058824E-1,-5.027027E-1,3E-1,3.818182E-1,-3E-1,5.690073E-1,5.2072245E-1,5.1428574E-1,4.615385E-2,2.8421053E-1,5.1674926E-1,-0E0,6.666667E-2,-4.615385E-2,-3.3333337E-1,-2.5714287E-1,3.3333337E-1],"split_indices":[3,0,0,4,0,0,3,0,5,3,0,6,0,0,3,6,0,0,5,0,5,3,0,6,6,5,4,3,0,6,1,0,0,0,0,6,4,6,4,0,0,6,0,0,0,0,0,0,0,0,0,0,0,0,0,0,0,0,0,0,0,0,0,0,0,0,0,0,0,0,0,0,0,0,0,0,0,0,0],"split_type":[0,0,0,0,0,0,0,0,0,0,0,0,0,0,0,0,0,0,0,0,0,0,0,0,0,0,0,0,0,0,0,0,0,0,0,0,0,0,0,0,0,0,0,0,0,0,0,0,0,0,0,0,0,0,0,0,0,0,0,0,0,0,0,0,0,0,0,0,0,0,0,0,0,0,0,0,0,0,0],"sum_hessian":[2.5785E3,1.2795E3,1.299E3,2.82E2,9.975E2,1.27075E3,2.825E1,1.0675E2,1.7525E2,9.5675E2,4.075E1,1.035E2,1.16725E3,6.75E0,2.15E1,3.275E1,7.4E1,1.6675E2,8.5E0,3.5E0,9.5325E2,8.075E1,2.275E1,8.365E2,3.3075E2,1.025E1,1.125E1,1.15E1,2.125E1,4.8E1,2.6E1,3E0,5.5E0,1.25E0,9.52E2,4.75E0,7.6E1,1.35E1,9.25E0,2.75E0,8.3375E2,5.2E1,2.7875E2,2.25E0,8E0,5.75E0,5.5E0,4.5E0,7E0,3E0,4.5E1,1.375E1,1.225E1,1E0,2E0,9.4875E2,3.25E0,2E0,2.75E0,4.5E0,7.15E1,1.75E0,1.175E1,8.25E0,1E0,1.75E0,1E0,3.0875E2,5.25E2,2.7E1,2.5E1,2.75E1,2.5125E2,1E0,1.25E0,2.25E0,5.75E0,4.25E0,1.25E0],"tree_param":{"num_deleted":"0","num_feature":"8","num_nodes":"79","size_leaf_vector":"0"}},{"base_weights":[2.1576755E-1,-8.6656237E-1,1.268268E0,8.076292E-1,-1.3454762E0,1.2873708E0,4.1749772E-1,-1.7773539E-1,1.4175068E0,-1.4650917E0,1.4076977E0,1.414989E0,1.2272265E0,1.37505E0,7.8489035E-2,1.1312844E0,-7.629693E-1,1.4588248E0,5.566461E-1,1.2501124E0,-1.476758E0,1.5228797E0,9.6501845E-1,6.3447386E-2,1.4226471E0,-1.410347E-1,1.2669278E0,-1.2976984E0,3.5995302E-1,4.381986E-1,1.4878873E0,-1.3238611E0,4.286807E-1,-8.185692E-1,1.3418487E0,9.4189215E-1,-1.4811816E0,-5.481562E-1,1.2945719E0,1.040225E0,1.4419607E0,1.4163667E0,-1.0732992E0,1.3391553E0,1.0734088E0,-3.6098877E-1,1.2128557E0,1.4323894E0,-2.3706578E-1,9.234608E-2,-1.427354E0,1.5646099E0,-4.7040185E-1,-0E0,-1.098701E0,-1.3849674E0,-1.5401157E0,1.2189076E0,-2.4769633E-1,1.4533528E0,8.07671E-1,-1.2442974E0,2.3322429E-1,4.372904E-1,1.353713E0,9.087143E-1,1.4189718E0,9.939495E-1,-7.033007E-1,3.0107164E-1,1.3490052E0],"categories":[],"categories_nodes":[],"categories_segments":[],"categories_sizes":[],"default_left":[true,true,true,true,true,true,true,true,true,true,true,true,true,false,true,true,true,false,true,false,true,false,true,false,true,true,true,false,true,true,false,true,true,true,false,false,true,false,false,true,true,false,true,true,true,true,true,false,false,false,false,false,false,false,false,false,false,false,false,false,false,false,false,false,false,false,false,false,false,false,false],"id":1,"left_children":[1,3,5,7,9,11,13,15,17,19,21,23,25,-1,27,29,31,-1,33,-1,35,-1,37,-1,39,41,43,-1,45,47,-1,49,51,53,-1,-1,55,-1,-1,57,59,-1,61,63,65,67,69,-1,-1,-1,-1,-1,-1,-1,-1,-1,-1,-1,-1,-1,-1,-1,-1,-1,-1,-1,-1,-1,-1,-1,-1],"loss_changes":[2.7327148E3,9.494554E2,1.9227173E1,1.5873279E2,3.0506958E2,7.38916E0,9.041971E0,7.878148E1,4.985901E0,2.9793335E1,5.097885E-1,3.7838745E0,4.448535E1,0E0,8.941209E0,7.2140923E0,4.7945263E1,0E0,1.0905739E1,0E0,1.0799072E1,0E0,6.0679092E0,0E0,1.2487793E0,3.621915E1,9.642822E0,0E0,1.2087243E1,8.549797E0,0E0,7.23188E0,2.4676521E1,8.993628E-1,0E0,0E0,2.8439941E0,0E0,0E0,5.2452374E0,1.3673096E0,0E0,3.75729E0,6.934204E0,1.1259567E1,5.818411E0,6.9966125E-1,0E0,0E0,0E0,0E0,0E0,0E0,0E0,0E0,0E0,0E0,0E0,0E0,0E0,0E0,0E0,0E0,0E0,0E0,0E0,0E0,0E0,0E0,0E0,0E0],"parents":[2147483647,0,0,1,1,2,2,3,3,4,4,5,5,6,6,7,7,8,8,9,9,10,10,11,11,12,12,14,14,15,15,16,16,18,18,20,20,22,22,24,24,25,25,26,26,28,28,29,29,31,31,32,32,33,33,36,36,39,39,40,40,42,42,43,43,44,44,45,45,46,46],"right_children":[2,4,6,8,10,12,14,16,18,20,22,24,26,-1,28,30,32,-1,34,-1,36,-1,38,-1,40,42,44,-1,46,48,-1,50,52,54,-1,-1,56,-1,-1,58,60,-1,62,64,66,68,70,-1,-1,-1,-1,-1,-1,-1,-1,-1,-1,-1,-1,-1,-1,-1,-1,-1,-1,-1,-1,-1,-1,-1,-1],"split_conditions":[3.5E0,1.7991667E1,2.3308334E1,1.65E1,1.8991667E1,4.655E2,1.05E1,1.2108334E1,1.5135E3,1.5E0,2.0875E1,1.5E1,4.895E2,4.12515E-1,1.0225E3,3.005E2,1.2608334E1,4.3764743E-1,1.515E3,3.7503374E-1,1.615E2,4.5686394E-1,2.14E1,1.9034216E-2,3.295E2,1.05E1,1.5141666E1,-3.8930953E-1,2.3525E1,8.866667E0,4.463662E-1,1.7125E3,1.243E3,6.075E0,4.0255463E-1,2.8256765E-1,6.7E2,-1.6444686E-1,3.883716E-1,3.2E2,1.65E1,4.2491004E-1,1.8341667E1,5.083333E-1,1.8991667E1,6.35E1,1.67E2,4.2971683E-1,-7.111973E-2,2.7703825E-2,-4.282062E-1,4.6938297E-1,-1.4112057E-1,-0E0,-3.2961032E-1,-4.1549024E-1,-4.6203473E-1,3.656723E-1,-7.43089E-2,4.3600586E-1,2.4230132E-1,-3.7328923E-1,6.996729E-2,1.3118713E-1,4.0611392E-1,2.726143E-1,4.2569155E-1,2.9818484E-1,-2.1099022E-1,9.0321496E-2,4.047016E-1],"split_indices":[3,0,0,4,0,5,3,0,5,3,0,6,5,0,6,6,0,0,5,0,5,0,0,0,6,3,0,0,0,0,0,6,5,0,0,0,5,0,0,6,3,0,0,0,0,4,5,0,0,0,0,0,0,0,0,0,0,0,0,0,0,0,0,0,0,0,0,0,0,0,0],"split_type":[0,0,0,0,0,0,0,0,0,0,0,0,0,0,0,0,0,0,0,0,0,0,0,0,0,0,0,0,0,0,0,0,0,0,0,0,0,0,0,0,0,0,0,0,0,0,0,0,0,0,0,0,0,0,0,0,0,0,0,0,0,0,0,0,0,0,0,0,0,0,0],"sum_hessian":[2.3969363E3,1.1818093E3,1.215127E3,2.627164E2,9.1909296E2,1.1879403E3,2.7186619E1,1.0071008E2,1.6200632E2,8.8127264E2,3.7820282E1,3.7330646E2,8.1463385E2,6.3093514E0,2.0877266E1,3.0826338E1,6.988374E1,1.5392395E2,8.082365E0,3.3161533E0,8.7795654E2,2.807518E1,9.745104E0,2.1556253E0,3.7115085E2,2.2898844E1,7.9173505E2,2.9318373E0,1.7945429E1,1.1229579E1,1.9596758E1,4.744238E1,2.2441364E1,2.922086E0,5.160279E0,1.2159108E0,8.767406E2,1.6241839E0,8.12092E0,2.048063E1,3.506702E2,8.38011E0,1.4518733E1,5.7223785E2,2.1949718E2,1.0037599E1,7.9078307E0,4.0886455E0,7.140934E0,3.238202E0,4.4204178E1,9.587715E0,1.285365E1,1E0,1.922086E0,3.4234244E2,5.343982E2,1.8032446E1,2.4481852E0,3.4321463E2,7.455564E0,1.2880549E1,1.6381837E0,9.5833E0,5.6265454E2,1.5110876E2,6.838842E1,1.6405078E0,8.397091E0,1.4446222E0,6.4632087E0],"tree_param":{"num_deleted":"0","num_feature":"8","num_nodes":"71","size_leaf_vector":"0"}},{"base_weights":[1.7983456E-1,-7.335463E-1,1.0423853E0,6.770658E-1,-1.1471713E0,1.0589402E0,3.4517863E-1,-1.3399805E-1,1.202856E0,-1.250784E0,1.1966808E0,1.124901E0,9.4903344E-1,1.1771697E0,6.912769E-2,9.408504E-1,-6.1252713E-1,1.2409629E0,4.493831E-1,1.0683895E0,-1.2614144E0,1.2429496E0,4.3179217E-1,7.9450095E-1,1.1539576E0,2.3402402E-2,1.013989E0,-1.0923098E0,3.0107498E-1,1.056621E0,-5.5509365E-1,-1.156786E0,2.691727E-1,7.581683E-1,1.2653935E0,-6.928625E-1,1.1475036E0,8.1997424E-1,-1.265712E0,6.0382986E-1,1.3275801E0,7.379829E-1,-5.281143E-2,1.1468863E0,-3.180804E-1,1.198993E0,9.249676E-1,1.3870159E0,-5.990193E-1,4.2654164E-2,1.033404E0,-2.5354412E-1,9.680976E-1,5.6001467E-1,1.2833238E0,-4.2895526E-1,-1.326077E0,1.0958806E0,-3.80994E-1,1.1774477E0,-7.243454E-1,1.0861342E0,1.3482765E0,-0E0,-9.442837E-1,-1.2700437E0,-1.3535167E-1,1.0650058E0,-6.61668E-1,4.142101E-1,1.3434038E0,-1.1753926E0,1.1555536E0,1.2664151E0,1.0864395E0,3.9030865E-2,1.0178353E0,1.6724775E-2,-9.562766E-1,1.2055978E0,-1.32665E0,1.2945484E0,9.1984123E-1,8.6526126E-1,-5.300594E-1,1.091193E0,2.7035117E-1],"categories":[],"categories_nodes":[],"categories_segments":[],"categories_sizes":[],"default_left":[true,true,true,true,true,true,true,true,true,true,true,true,true,false,true,true,true,true,true,false,true,true,true,true,true,true,true,false,true,true,false,true,true,true,true,true,false,false,true,true,false,false,false,true,true,true,true,false,true,true,true,true,true,false,false,false,false,false,false,false,false,false,false,false,false,false,false,false,false,false,false,false,false,false,false,false,false,false,false,false,false,false,false,false,false,false,false],"id":2,"left_children":[1,3,5,7,9,11,13,15,17,19,21,23,25,-1,27,29,31,33,35,-1,37,39,41,43,45,47,49,-1,51,53,-1,55,57,59,61,63,-1,-1,65,67,-1,-1,-1,69,71,73,75,-1,77,79,81,83,85,-1,-1,-1,-1,-1,-1,-1,-1,-1,-1,-1,-1,-1,-1,-1,-1,-1,-1,-1,-1,-1,-1,-1,-1,-1,-1,-1,-1,-1,-1,-1,-1,-1,-1],"loss_changes":[1.6326987E3,5.881201E2,1.1935669E1,9.77647E1,1.9062427E2,6.475952E0,5.936634E0,4.7339203E1,3.4321594E0,1.974646E1,6.4818573E-1,5.274353E0,2.3825867E1,0E0,5.9152694E0,5.5053635E0,3.0790583E1,5.940094E-1,7.3795533E0,0E0,7.687256E0,8.7719345E-1,5.497084E-1,2.2061184E1,4.981079E0,2.3775978E1,6.945526E0,0E0,6.9299726E0,2.2879677E0,0E0,4.2934303E0,1.3883811E1,6.346537E0,3.7590027E-1,6.542587E-1,0E0,0E0,3.4621582E0,3.8933911E0,0E0,0E0,0E0,5.5261917E0,1.916459E1,2.3434448E0,8.305489E0,0E0,4.2528186E0,1.4826235E1,9.584137E0,3.7559438E0,4.2739248E-1,0E0,0E0,0E0,0E0,0E0,0E0,0E0,0E0,0E0,0E0,0E0,0E0,0E0,0E0,0E0,0E0,0E0,0E0,0E0,0E0,0E0,0E0,0E0,0E0,0E0,0E0,0E0,0E0,0E0,0E0,0E0,0E0,0E0,0E0],"parents":[2147483647,0,0,1,1,2,2,3,3,4,4,5,5,6,6,7,7,8,8,9,9,10,10,11,11,12,12,14,14,15,15,16,16,17,17,18,18,20,20,21,21,22,22,23,23,24,24,25,25,26,26,28,28,29,29,31,31,32,32,33,33,34,34,35,35,38,38,39,39,43,43,44,44,45,45,46,46,48,48,49,49,50,50,51,51,52,52],"right_children":[2,4,6,8,10,12,14,16,18,20,22,24,26,-1,28,30,32,34,36,-1,38,40,42,44,46,48,50,-1,52,54,-1,56,58,60,62,64,-1,-1,66,68,-1,-1,-1,70,72,74,76,-1,78,80,82,84,86,-1,-1,-1,-1,-1,-1,-1,-1,-1,-1,-1,-1,-1,-1,-1,-1,-1,-1,-1,-1,-1,-1,-1,-1,-1,-1,-1,-1,-1,-1,-1,-1,-1,-1],"split_conditions":[3.5E0,1.7991667E1,2.3308334E1,1.65E1,1.8991667E1,9.785E2,1.05E1,1.2108334E1,1.5135E3,1.5E0,2.1625E3,1.9583334E0,9.795E2,3.531509E-1,1.0225E3,5.5E0,1.235E1,4.4E1,1.515E3,3.2051688E-1,1.615E2,1.435E2,1.9808334E1,1.984E3,1.165E2,1.8091667E1,5.083333E-1,-3.2769296E-1,2.3525E1,3.005E2,-1.665281E-1,7.2E2,1.4966667E1,1.4458333E1,4.155E2,6.075E0,3.442511E-1,2.4599229E-1,1.8891666E1,3.5E0,3.9827403E-1,2.2139488E-1,-1.5843429E-2,2.8E1,1.9895E3,1.15E1,5E-1,4.161048E-1,1.5E0,1.4855E3,8.025E0,6.35E1,1.06E2,1.6800441E-1,3.8499716E-1,-1.2868658E-1,-3.9782313E-1,3.287642E-1,-1.142982E-1,3.5323432E-1,-2.1730362E-1,3.2584026E-1,4.0448296E-1,-0E0,-2.8328514E-1,-3.8101313E-1,-4.0605504E-2,3.1950176E-1,-1.9850041E-1,1.2426304E-1,4.0302116E-1,-3.526178E-1,3.466661E-1,3.7992457E-1,3.2593185E-1,1.170926E-2,3.053506E-1,5.0174324E-3,-2.86883E-1,3.6167935E-1,-3.9799502E-1,3.8836452E-1,2.7595237E-1,2.5957838E-1,-1.5901783E-1,3.273579E-1,8.110535E-2],"split_indices":[3,0,0,4,0,5,3,0,5,3,6,0,5,0,6,1,0,6,5,0,5,6,0,6,4,0,0,0,0,6,0,5,0,0,5,0,0,0,0,1,0,0,0,4,6,3,1,0,1,6,0,4,4,0,0,0,0,0,0,0,0,0,0,0,0,0,0,0,0,0,0,0,0,0,0,0,0,0,0,0,0,0,0,0,0,0,0],"split_type":[0,0,0,0,0,0,0,0,0,0,0,0,0,0,0,0,0,0,0,0,0,0,0,0,0,0,0,0,0,0,0,0,0,0,0,0,0,0,0,0,0,0,0,0,0,0,0,0,0,0,0,0,0,0,0,0,0,0,0,0,0,0,0,0,0,0,0,0,0,0,0,0,0,0,0,0,0,0,0,0,0,0,0,0,0,0,0],"sum_hessian":[2.0704097E3,1.00564825E3,1.0647615E3,2.2787485E2,7.777734E2,1.0395588E3,2.5202635E1,8.9917175E1,1.3795767E2,7.4529315E2,3.248023E1,6.4389087E2,3.95668E2,5.465581E0,1.9737055E1,2.7402008E1,6.2515167E1,1.3070049E2,7.2571907E0,2.9465706E0,7.423466E2,3.0038185E1,2.4420443E0,5.4339798E1,5.89551E2,2.6034262E1,3.6963373E2,2.6680307E0,1.7069023E1,2.5706284E1,1.6957238E0,3.846151E1,2.4053656E1,7.83811E0,1.2286237E2,2.755784E0,4.5014067E0,1.1385689E0,7.41208E2,4.463703E0,2.557448E1,1.1760883E0,1.2659559E0,4.12454E1,1.30943985E1,4.891201E2,1.0043096E2,7.7741294E0,1.8260132E1,7.3061E0,3.6232764E2,9.658236E0,7.410788E0,9.144645E0,1.656164E1,7.924714E0,3.0536797E1,1.0287381E1,1.3766274E1,6.270488E0,1.567622E0,4.3305557E1,7.9556816E1,1E0,1.755784E0,7.382554E2,2.9526715E0,3.387611E0,1.0760922E0,9.380354E0,3.1865047E1,8.406282E0,4.688116E0,2.994755E2,1.8964459E2,9.663514E0,9.076745E1,7.0545616E0,1.120557E1,4.0153966E0,3.2907033E0,1.0665915E2,2.5566849E2,1.492061E0,8.166175E0,5.8201284E0,1.5906596E0],"tree_param":{"num_deleted":"0","num_feature":"8","num_nodes":"87","size_leaf_vector":"0"}},{"base_weights":[1.5555146E-1,-6.463618E-1,8.8514906E-1,5.8363897E-1,-1.0218649E0,9.523923E-1,7.217944E-1,-1.1044418E-1,1.0672315E0,-1.1163863E0,1.0617193E0,1.070862E0,8.811428E-1,9.3485504E-1,4.8852795E-1,1.1067529E0,-4.042263E-1,1.1045E0,3.7365827E-1,9.420435E-1,-1.1265745E0,1.197583E0,6.087436E-1,1.1646614E0,9.138549E-1,-2.1595888E-1,9.19399E-1,6.1975646E-1,1.0490377E0,3.1007946E-1,1.275097E0,5.8594245E-1,1.3053285E0,5.6399006E-1,-6.3775176E-1,9.09013E-1,1.2041738E0,-5.9809434E-1,1.0173982E0,7.264359E-1,-1.1309739E0,-5.086504E-1,9.4605064E-1,8.585166E-1,1.2046216E0,-1.8588009E0,9.642632E-1,-8.439982E-1,1.0283406E0,1.0648865E0,7.7096254E-1,1.027567E0,-4.1355222E-1,1.139579E0,5.1715004E-1,-5.5137295E-1,4.6222964E-1,9.787502E-1,-1.6023992E-1,-5.280064E-1,9.8031604E-1,-1.0162452E0,1.1638252E-1,1.1153438E0,-6.9920856E-1,-0E0,-8.3140606E-1,-1.003527E0,-1.2119275E0,2.5900978E-1,1.0464623E0,9.9177134E-1,-7.142575E-1,8.7043196E-1,1.2313471E0,3.8578045E-2,1.0049226E0,1.4110292E-2,-2.4422102E0,1.1783303E0,8.0386364E-1,-1.2285357E0,8.1666523E-1,1.1409469E0,-3.142364E-1,-1.2355874E0,5.8538723E-1,8.1694514E-1,1.2770555E0,-1.1896561E0,7.716617E-1,-1.1260725E0,1.1006212E0,-1.3849236E-1,6.6848874E-1],"categories":[],"categories_nodes":[],"categories_segments":[],"categories_sizes":[],"default_left":[true,true,true,true,true,true,true,true,true,true,true,true,true,true,true,true,true,true,true,false,true,false,true,true,true,true,true,true,true,true,false,true,false,true,true,true,false,true,false,false,true,false,true,true,true,false,true,true,false,true,true,true,true,true,true,true,true,false,false,false,false,false,false,false,false,false,false,false,false,false,false,false,false,false,false,false,false,false,false,false,false,false,false,false,false,false,false,false,false,false,false,false,false,false,false],"id":3,"left_children":[1,3,5,7,9,11,13,15,17,19,21,23,25,27,29,31,33,35,37,-1,39,-1,41,43,45,47,49,51,53,55,-1,57,-1,59,61,63,-1,65,-1,-1,67,-1,69,71,73,-1,75,77,-1,79,81,83,85,87,89,91,93,-1,-1,-1,-1,-1,-1,-1,-1,-1,-1,-1,-1,-1,-1,-1,-1,-1,-1,-1,-1,-1,-1,-1,-1,-1,-1,-1,-1,-1,-1,-1,-1,-1,-1,-1,-1,-1,-1],"loss_changes":[1.01797046E3,3.834788E2,9.318787E0,6.541033E1,1.2633508E2,4.4769287E0,1.2950485E1,2.9334978E1,2.553131E0,1.3819946E1,9.996643E-1,2.4190369E0,1.7266022E1,4.3830338E0,1.7973772E1,8.8723755E-1,1.5239421E1,1.0171051E0,5.214033E0,0E0,5.760376E0,0E0,3.6904943E0,7.3262024E-1,1.4804787E1,1.2208555E1,7.669037E0,1.7134628E1,4.2861633E0,1.4409262E1,0E0,1.9811332E0,0E0,6.572762E0,1.5386337E1,1.4277832E1,0E0,4.9725926E-1,0E0,0E0,5.0235596E0,0E0,2.0428467E-1,4.9324903E0,4.7027588E-2,0E0,3.4276123E0,1.4014128E1,0E0,4.854187E0,1.9117088E1,4.727663E0,1.0523227E1,2.7571182E0,8.110706E0,1.7062445E1,1.1532005E1,0E0,0E0,0E0,0E0,0E0,0E0,0E0,0E0,0E0,0E0,0E0,0E0,0E0,0E0,0E0,0E0,0E0,0E0,0E0,0E0,0E0,0E0,0E0,0E0,0E0,0E0,0E0,0E0,0E0,0E0,0E0,0E0,0E0,0E0,0E0,0E0,0E0,0E0],"parents":[2147483647,0,0,1,1,2,2,3,3,4,4,5,5,6,6,7,7,8,8,9,9,10,10,11,11,12,12,13,13,14,14,15,15,16,16,17,17,18,18,20,20,22,22,23,23,24,24,25,25,26,26,27,27,28,28,29,29,31,31,33,33,34,34,35,35,37,37,40,40,42,42,43,43,44,44,46,46,47,47,49,49,50,50,51,51,52,52,53,53,54,54,55,55,56,56],"right_children":[2,4,6,8,10,12,14,16,18,20,22,24,26,28,30,32,34,36,38,-1,40,-1,42,44,46,48,50,52,54,56,-1,58,-1,60,62,64,-1,66,-1,-1,68,-1,70,72,74,-1,76,78,-1,80,82,84,86,88,90,92,94,-1,-1,-1,-1,-1,-1,-1,-1,-1,-1,-1,-1,-1,-1,-1,-1,-1,-1,-1,-1,-1,-1,-1,-1,-1,-1,-1,-1,-1,-1,-1,-1,-1,-1,-1,-1,-1,-1],"split_conditions":[3.5E0,1.7991667E1,1.5141666E1,1.65E1,1.8991667E1,5.4E1,9.45E2,9.5E0,1.5135E3,1.5E0,2.0875E1,7.575E2,6.1E1,4.25E1,4.5E0,5.68E2,1.2108334E1,1.77E2,1.515E3,2.8261307E-1,1.615E2,3.592749E-1,2.14E1,4.35E2,7.685E2,1.6875E3,1.1275E3,3.85E1,2.2425E1,1.6616667E1,3.825291E-1,4.645E2,3.9159855E-1,2.52E2,1.2608334E1,1.625E2,3.6125216E-1,6.075E0,3.0521947E-1,2.1793078E-1,6.7E2,-1.5259513E-1,2.1475E1,4.2E2,5.5E0,-5.576403E-1,1.425E0,9.63E2,3.085022E-1,1.115E2,1.137E3,2.3625E1,1.4365E3,8.5E0,2.2566666E1,1.467E3,9.795E2,2.936251E-1,-4.8071977E-2,-1.5840192E-1,2.9409483E-1,-3.048736E-1,3.4914758E-2,3.3460316E-1,-2.0976257E-1,-0E0,-2.4942182E-1,-3.010581E-1,-3.6357826E-1,7.770294E-2,3.139387E-1,2.9753143E-1,-2.1427725E-1,2.611296E-1,3.6940414E-1,1.1573413E-2,3.014768E-1,4.233088E-3,-7.326631E-1,3.534991E-1,2.411591E-1,-3.685607E-1,2.4499957E-1,3.4228408E-1,-9.427092E-2,-3.7067622E-1,1.7561617E-1,2.4508356E-1,3.8311666E-1,-3.5689685E-1,2.3149852E-1,-3.3782178E-1,3.3018637E-1,-4.154771E-2,2.0054664E-1],"split_indices":[3,0,0,4,0,4,5,4,5,3,0,5,4,4,1,5,0,6,5,0,5,0,0,6,5,6,6,4,0,0,0,5,0,6,0,6,0,0,0,0,5,0,0,6,4,0,0,6,0,4,6,0,6,3,0,5,5,0,0,0,0,0,0,0,0,0,0,0,0,0,0,0,0,0,0,0,0,0,0,0,0,0,0,0,0,0,0,0,0,0,0,0,0,0,0],"split_type":[0,0,0,0,0,0,0,0,0,0,0,0,0,0,0,0,0,0,0,0,0,0,0,0,0,0,0,0,0,0,0,0,0,0,0,0,0,0,0,0,0,0,0,0,0,0,0,0,0,0,0,0,0,0,0,0,0,0,0,0,0,0,0,0,0,0,0,0,0,0,0,0,0,0,0,0,0,0,0,0,0,0,0,0,0,0,0,0,0,0,0,0,0,0,0],"sum_hessian":[1.7379226E3,8.2798456E2,9.09938E2,1.9352344E2,6.344611E2,6.411749E2,2.6876306E2,7.9783966E1,1.1373947E2,6.07372E2,2.7089106E1,2.3552574E2,4.056492E2,1.3889326E2,1.298698E2,1.49744835E1,6.480949E1,1.07377174E2,6.362303E0,2.5409243E0,6.048311E2,1.9574266E1,7.51484E0,1.4342354E2,9.2102196E1,1.3511949E1,3.9213727E2,3.8653313E1,1.0023995E2,1.0699101E2,2.2878778E1,5.2240157E0,9.750467E0,1.23189535E1,5.2490532E1,3.96779E1,6.769927E1,2.5634992E0,3.7988033E0,1.0438411E0,6.037873E2,1.6247087E0,5.8901315E0,1.915516E1,1.2426837E2,1.0039878E0,9.109821E1,9.193428E0,4.318521E0,1.9491785E2,1.9721942E2,2.771911E1,1.0934202E1,8.468227E1,1.5557686E1,1.5666378E1,9.132464E1,3.218202E0,2.0058138E0,3.3262253E0,8.992728E0,3.4718204E1,1.7772327E1,3.543779E1,4.2401075E0,1E0,1.5634992E0,2.3974637E2,3.640409E2,1.2075125E0,4.682619E0,1.7999544E1,1.1556158E0,1.1687794E1,1.1258058E2,3.915004E0,8.7183205E1,6.626639E0,2.5667892E0,1.334183E2,6.1499535E1,3.8287811E0,1.9339064E2,2.569742E1,2.0216908E0,5.868263E0,5.065939E0,2.737656E1,5.7305706E1,1.5420592E0,1.4015627E1,1.1859146E1,3.807232E0,2.3425955E1,6.789868E1],"tree_param":{"num_deleted":"0","num_feature":"8","num_nodes":"95","size_leaf_vector":"0"}},{"base_weights":[1.3664874E-1,7.4244654E-1,-5.920278E-1,2.6819718E-1,8.209642E-1,-8.705869E-1,8.142285E-1,9.315645E-1,-2.2772032E-1,8.9651525E-1,7.112558E-1,-1.023561E0,2.4130222E-1,9.8444813E-1,1.9279237E-1,2.0941305E-1,1.0799578E0,6.8729407E-1,-5.437648E-1,8.43157E-1,1.1222198E0,8.0760694E-1,2.6442492E-1,8.449028E-1,-1.0336733E0,4.329165E-1,-2.470812E0,1.76136E-1,1.0213369E0,1.0423431E0,-1.2385938E-1,1.0614153E0,-1.0994216E0,1.1182985E0,9.2091046E-2,-4.0672708E-1,9.735061E-1,4.0382865E-1,-8.5197604E-1,9.7630966E-1,7.3734075E-1,1.1882252E0,-1.8915907E-1,1.1227298E0,6.8045604E-1,-3.7938753E-1,6.2904686E-1,-8.8233614E-1,-1.1355668E0,-3.5212882E-2,7.029583E-1,8.97085E-1,-8.1897205E-1,1.1842792E0,7.6763624E-1,-4.8769754E-1,2.8290984E-1,6.6417646E-1,-2.0310178E0,6.530165E-1,1.1710452E0,-7.4126035E-1,2.3748219E-1,1.1178252E0,3.509601E-1,-3.8590708E-1,1.0152436E0,-9.9400604E-1,1.0205574E0,4.3581477E-1,1.0163796E0,8.013081E-1,1.5965684E-1,-1.4088073E0,8.291055E-1,-1.8248783E0,7.190933E-1,-8.1394076E-1,1.0076015E0,1.1046023E0,-1.2370291E-2,-9.146362E-1,1.4337308E0,-8.222093E-1,-1.1521845E0,1.0278012E0,-3.355514E-1,1.0572124E0,-2.8173367E-2,1.3063444E0,1.7088141E-2,-8.0515665E-1,8.415076E-1,8.97532E-2,-6.50108E-1,9.8593956E-1,-3.2301298E-1],"categories":[],"categories_nodes":[],"categories_segments":[],"categories_sizes":[],"default_left":[true,true,true,true,true,true,true,true,true,true,true,true,true,true,true,true,true,true,true,true,true,true,true,false,true,true,false,true,true,false,true,false,true,true,false,true,true,true,true,true,true,false,true,false,true,true,true,true,true,true,true,true,false,false,true,true,true,false,false,false,false,false,false,false,false,false,false,false,false,false,false,false,false,false,false,false,false,false,false,false,false,false,false,false,false,false,false,false,false,false,false,false,false,false,false,false,false],"id":4,"left_children":[1,3,5,7,9,11,13,15,17,19,21,23,25,27,29,31,33,35,37,39,41,43,45,-1,47,49,-1,51,53,-1,55,-1,57,59,-1,61,63,65,67,69,71,-1,73,-1,75,77,79,81,83,85,87,89,-1,-1,91,93,95,-1,-1,-1,-1,-1,-1,-1,-1,-1,-1,-1,-1,-1,-1,-1,-1,-1,-1,-1,-1,-1,-1,-1,-1,-1,-1,-1,-1,-1,-1,-1,-1,-1,-1,-1,-1,-1,-1,-1,-1],"loss_changes":[6.4198376E2,2.934671E1,2.593689E2,3.780468E1,5.0047913E0,9.4072235E1,1.1413185E1,5.03331E0,1.9515532E1,3.8625488E0,1.194696E1,1.0039093E1,3.6159935E1,2.3802643E0,6.808282E0,1.1879599E1,1.4299393E0,5.855215E0,1.4876098E1,3.8869934E0,6.57164E0,8.5265045E0,1.2349251E1,0E0,6.4450684E0,8.1049185E0,0E0,4.290068E0,2.4767227E0,0E0,2.9471006E0,0E0,8.379242E0,1.8925858E-1,0E0,1.1071913E0,8.757839E-1,6.6159577E0,1.1085381E1,2.6258545E0,6.755287E0,0E0,6.6032953E0,0E0,1.7549858E1,1.24389E1,1.0174971E1,1.6183792E1,5.3741455E-1,8.114216E0,1.0541012E1,1.1845284E0,0E0,0E0,4.7293606E0,1.0324137E0,4.4055815E0,0E0,0E0,0E0,0E0,0E0,0E0,0E0,0E0,0E0,0E0,0E0,0E0,0E0,0E0,0E0,0E0,0E0,0E0,0E0,0E0,0E0,0E0,0E0,0E0,0E0,0E0,0E0,0E0,0E0,0E0,0E0,0E0,0E0,0E0,0E0,0E0,0E0,0E0,0E0,0E0],"parents":[2147483647,0,0,1,1,2,2,3,3,4,4,5,5,6,6,7,7,8,8,9,9,10,10,11,11,12,12,13,13,14,14,15,15,16,16,17,17,18,18,19,19,20,20,21,21,22,22,24,24,25,25,27,27,28,28,30,30,32,32,33,33,35,35,36,36,37,37,38,38,39,39,40,40,42,42,44,44,45,45,46,46,47,47,48,48,49,49,50,50,51,51,54,54,55,55,56,56],"right_children":[2,4,6,8,10,12,14,16,18,20,22,24,26,28,30,32,34,36,38,40,42,44,46,-1,48,50,-1,52,54,-1,56,-1,58,60,-1,62,64,66,68,70,72,-1,74,-1,76,78,80,82,84,86,88,90,-1,-1,92,94,96,-1,-1,-1,-1,-1,-1,-1,-1,-1,-1,-1,-1,-1,-1,-1,-1,-1,-1,-1,-1,-1,-1,-1,-1,-1,-1,-1,-1,-1,-1,-1,-1,-1,-1,-1,-1,-1,-1,-1,-1],"split_conditions":[1.7991667E1,1.55E1,1.8875E1,9.5E0,1.05E1,3.5E0,2.3308334E1,2.525E0,1.2108334E1,1.7685E3,1.8855E3,1.5E0,1.6355E3,1.8991667E1,1.05E1,3.5E0,1.7E1,2.52E2,7.565E2,9.141666E0,1.285E2,3.49E2,2.3083334E0,2.5347087E-1,6.7E2,3.04E2,-7.4124366E-1,1.185E2,2.0983334E1,3.1270295E-1,1.35E1,3.184246E-1,5.5E0,2.93E2,2.7627315E-2,9.583334E0,4.5E0,1.2258333E1,1.5816667E1,1.315E2,1.185E2,3.5646755E-1,1.295E2,3.3681893E-1,3.535E2,1.996E3,1.3008333E1,5.985E2,1.65E1,2.8E2,1.35E1,2.5E0,-2.4569163E-1,3.5528377E-1,2.1125E1,6.245E2,9.45E1,1.9925295E-1,-6.093054E-1,1.9590496E-1,3.5131356E-1,-2.2237812E-1,7.124466E-2,3.3534756E-1,1.05288036E-1,-1.1577213E-1,3.0457312E-1,-2.9820183E-1,3.0616724E-1,1.3074444E-1,3.0491388E-1,2.4039243E-1,4.7897052E-2,-4.226422E-1,2.4873166E-1,-5.4746354E-1,2.15728E-1,-2.4418224E-1,3.0228046E-1,3.3138072E-1,-3.7110874E-3,-2.7439088E-1,4.3011928E-1,-2.466628E-1,-3.4565535E-1,3.0834037E-1,-1.0066543E-1,3.171637E-1,-8.45201E-3,3.9190334E-1,5.1264428E-3,-2.41547E-1,2.5245228E-1,2.6925962E-2,-1.950324E-1,2.9578188E-1,-9.69039E-2],"split_indices":[0,4,0,4,3,3,0,0,0,6,6,3,5,0,3,1,0,6,5,0,4,5,0,0,5,6,0,4,0,0,3,0,3,6,0,0,1,0,0,5,4,0,4,0,5,6,0,5,4,6,3,1,0,0,0,5,4,0,0,0,0,0,0,0,0,0,0,0,0,0,0,0,0,0,0,0,0,0,0,0,0,0,0,0,0,0,0,0,0,0,0,0,0,0,0,0,0],"split_type":[0,0,0,0,0,0,0,0,0,0,0,0,0,0,0,0,0,0,0,0,0,0,0,0,0,0,0,0,0,0,0,0,0,0,0,0,0,0,0,0,0,0,0,0,0,0,0,0,0,0,0,0,0,0,0,0,0,0,0,0,0,0,0,0,0,0,0,0,0,0,0,0,0,0,0,0,0,0,0,0,0,0,0,0,0,0,0,0,0,0,0,0,0,0,0,0,0],"sum_hessian":[1.4523295E3,7.9301984E2,6.5930963E2,1.1327157E2,6.797483E2,5.5062054E2,1.0868906E2,4.807939E1,6.5192184E1,3.9829172E2,2.8145657E2,4.8409766E2,6.6522896E1,8.486048E1,2.3828575E1,8.606643E0,3.9472748E1,1.6434942E1,4.875724E1,3.2596646E2,7.232525E1,2.308668E2,5.0589752E1,2.1615217E0,4.8193613E2,6.2918034E1,3.604861E0,3.9557722E0,8.090471E1,5.8477573E0,1.7980818E1,5.3276076E0,3.2790349E0,3.7870884E1,1.6018624E0,3.3207166E0,1.3114225E1,1.1890312E1,3.686693E1,1.4069638E2,1.8527007E2,6.8948784E1,3.3764699E0,6.41217E1,1.6674512E2,1.8277212E1,3.2312542E1,1.9780528E2,2.8413086E2,2.333514E1,3.9582893E1,2.3509965E0,1.6047758E0,4.7030685E1,3.3874023E1,9.386251E0,8.594566E0,1.232622E0,2.0464127E0,5.2184887E0,3.2652397E1,2.08654E0,1.2341766E0,1.0000363E1,3.113862E0,5.349477E0,6.5408354E0,3.4703835E1,2.1630912E0,1.0530385E1,1.30166E2,1.6645164E2,1.8818419E1,1.3618033E0,2.0146668E0,1.8303396E0,1.6491478E2,1.4231534E1,4.0456777E0,1.814067E1,1.4171873E1,1.9568138E2,2.1239002E0,1.6851051E1,2.6727982E2,4.6070104E0,1.872813E1,2.6363186E1,1.3219707E1,1.2740073E0,1.0769892E0,1.0755291E0,3.2798496E1,2.1586244E0,7.2276273E0,3.6881604E0,4.9064054E0],"tree_param":{"num_deleted":"0","num_feature":"8","num_nodes":"97","size_leaf_vector":"0"}},{"base_weights":[1.20759524E-1,6.4123845E-1,-5.277683E-1,2.4244657E-1,7.083383E-1,-8.5455936E-1,4.6724507E-1,8.3565444E-1,-1.7526388E-1,7.8342026E-1,6.024281E-1,-9.411962E-1,7.648104E-1,1.4318979E-1,6.976732E-1,9.152402E-1,-3.3945858E-1,5.942535E-1,-4.3459854E-1,7.255057E-1,1.0458122E0,1.1227243E0,5.0663054E-1,-7.655548E-1,-1.0676668E0,1.0643644E-1,9.6743757E-1,3.1372035E-1,-1.3865724E0,9.875479E-1,2.3293284E-1,-1.8452813E-1,1.006864E0,-1.300174E0,6.55768E-1,-1.1785867E-1,1.0240375E0,3.1972817E-1,-6.968485E-1,7.343321E-1,-6.387689E-1,1.1233793E0,-1.4390995E-1,-3.2111146E0,5.4599154E-1,-7.996701E-1,9.0758276E-1,6.0481626E-1,-1.0783032E0,7.883041E-1,-4.6287373E-1,1.3791753E-1,1.1302986E0,4.5550627E-1,-4.0219858E-1,7.4695E-1,1.1282734E0,1.0265758E0,-5.0425258E-2,7.404883E-1,-1.0307388E0,1.0477502E0,7.580479E-2,-6.831819E-1,9.553572E-1,-3.0502683E-1,8.0886984E-1,-1.1088386E0,-6.345552E-2,3.2542253E-1,7.6912206E-1,-9.817788E-1,7.501926E-1,8.269176E-1,3.9145797E-1,-9.105996E-1,-2.9745382E-1,-3.945376E-3,1.5520425E0,-7.2326976E-1,-1.0988499E0,3.68742E-1,-8.8079756E-1,6.6484326E-1,-4.7625324E-1,1.098703E0,1.4319782E-1,8.782519E-1,-9.759023E-1,2.7489135E-1,1.0630586E0,5.329568E-1,-3.3772963E-1],"categories":[],"categories_nodes":[],"categories_segments":[],"categories_sizes":[],"default_left":[true,true,true,true,true,true,true,true,true,true,true,true,true,true,true,true,true,true,true,true,true,false,true,true,true,true,true,true,false,true,true,true,true,false,false,true,false,true,true,true,false,false,true,false,true,true,true,false,true,false,true,true,false,true,true,true,false,false,true,false,false,false,false,false,false,false,false,false,false,false,false,false,false,false,false,false,false,false,false,false,false,false,false,false,false,false,false,false,false,false,false,false,false],"id":5,"left_children":[1,3,5,7,9,11,13,15,17,19,21,23,25,27,29,31,33,35,37,39,41,-1,43,45,47,49,51,53,-1,55,57,59,61,-1,-1,63,-1,65,67,69,-1,-1,71,-1,73,75,77,-1,79,-1,81,83,-1,85,87,89,-1,-1,91,-1,-1,-1,-1,-1,-1,-1,-1,-1,-1,-1,-1,-1,-1,-1,-1,-1,-1,-1,-1,-1,-1,-1,-1,-1,-1,-1,-1,-1,-1,-1,-1,-1,-1],"loss_changes":[4.0958276E2,1.7838623E1,1.761015E2,2.4543182E1,4.105194E0,5.7836853E1,9.923899E0,4.13163E0,1.1952954E1,4.309143E0,1.1548492E1,7.776764E0,2.7287216E0,1.5316176E1,1.0304062E1,4.0687675E0,4.027873E0,4.77078E0,9.007685E0,3.7980957E0,5.5172195E0,0E0,3.2063377E1,1.0172096E1,4.6084137E0,2.7402506E0,2.0201597E0,5.475631E0,0E0,7.773056E-1,7.1010165E0,3.7444956E0,1.2805939E0,0E0,0E0,4.6663017E0,0E0,3.9571147E0,8.610559E0,3.6639557E0,0E0,0E0,4.061604E0,0E0,8.61121E0,8.794289E0,2.223952E0,0E0,8.199463E-1,0E0,1.702759E0,1.5406955E0,0E0,8.678879E0,7.578673E0,2.784295E0,0E0,0E0,4.211321E0,0E0,0E0,0E0,0E0,0E0,0E0,0E0,0E0,0E0,0E0,0E0,0E0,0E0,0E0,0E0,0E0,0E0,0E0,0E0,0E0,0E0,0E0,0E0,0E0,0E0,0E0,0E0,0E0,0E0,0E0,0E0,0E0,0E0,0E0],"parents":[2147483647,0,0,1,1,2,2,3,3,4,4,5,5,6,6,7,7,8,8,9,9,10,10,11,11,12,12,13,13,14,14,15,15,16,16,17,17,18,18,19,19,20,20,22,22,23,23,24,24,25,25,26,26,27,27,29,29,30,30,31,31,32,32,35,35,37,37,38,38,39,39,42,42,44,44,45,45,46,46,48,48,50,50,51,51,53,53,54,54,55,55,58,58],"right_children":[2,4,6,8,10,12,14,16,18,20,22,24,26,28,30,32,34,36,38,40,42,-1,44,46,48,50,52,54,-1,56,58,60,62,-1,-1,64,-1,66,68,70,-1,-1,72,-1,74,76,78,-1,80,-1,82,84,-1,86,88,90,-1,-1,92,-1,-1,-1,-1,-1,-1,-1,-1,-1,-1,-1,-1,-1,-1,-1,-1,-1,-1,-1,-1,-1,-1,-1,-1,-1,-1,-1,-1,-1,-1,-1,-1,-1,-1],"split_conditions":[1.7991667E1,1.55E1,3.5E0,9.5E0,1.05E1,1.8891666E1,1.8625E1,1E1,1.2108334E1,1.7685E3,2.69E2,6.7E2,1.665E2,1.6355E3,2.2425E1,1.425E0,4.075E0,4.17E2,7.565E2,1.765E3,1.285E2,3.368173E-1,2.985E2,5.985E2,1.5E0,1.38E2,5E-1,1.55E1,-4.1597173E-1,8.5E0,1.05E1,6.5E0,1.7E1,-3.9005223E-1,1.967304E-1,7.695E2,3.0721125E-1,1.2258333E1,1.15E1,1.515E2,-1.9163068E-1,3.370138E-1,1.295E2,-9.6333444E-1,1.1275E3,1.8191666E1,2.5E0,1.8144488E-1,1.65E1,2.3649123E-1,1.5E0,1.9155E3,3.390896E-1,7.25E1,1.305E3,3.5E0,3.3848202E-1,3.0797276E-1,6.07E2,2.221465E-1,-3.0922166E-1,3.143251E-1,2.2741439E-2,-2.0495458E-1,2.8660718E-1,-9.150805E-2,2.4266095E-1,-3.326516E-1,-1.9036658E-2,9.762676E-2,2.3073663E-1,-2.9453364E-1,2.2505778E-1,2.4807529E-1,1.174374E-1,-2.731799E-1,-8.923615E-2,-1.1836127E-3,4.6561277E-1,-2.1698093E-1,-3.29655E-1,1.106226E-1,-2.6423928E-1,1.9945298E-1,-1.4287598E-1,3.296109E-1,4.2959347E-2,2.634756E-1,-2.927707E-1,8.246741E-2,3.189176E-1,1.5988705E-1,-1.01318896E-1],"split_indices":[0,4,3,4,3,0,0,3,0,6,5,5,6,5,0,0,0,6,5,6,4,0,5,5,3,6,1,3,0,3,3,3,0,0,0,5,0,0,4,5,0,0,4,0,6,0,1,0,4,0,1,6,0,4,6,1,0,0,5,0,0,0,0,0,0,0,0,0,0,0,0,0,0,0,0,0,0,0,0,0,0,0,0,0,0,0,0,0,0,0,0,0,0],"split_type":[0,0,0,0,0,0,0,0,0,0,0,0,0,0,0,0,0,0,0,0,0,0,0,0,0,0,0,0,0,0,0,0,0,0,0,0,0,0,0,0,0,0,0,0,0,0,0,0,0,0,0,0,0,0,0,0,0,0,0,0,0,0,0,0,0,0,0,0,0,0,0,0,0,0,0,0,0,0,0,0,0,0,0,0,0,0,0,0,0,0,0,0,0],"sum_hessian":[1.211414E3,6.720602E2,5.393537E2,9.7457596E1,5.746026E2,4.06115E2,1.3323871E2,3.9855953E1,5.7601643E1,3.324938E2,2.4210881E2,3.858886E2,2.0226372E1,5.604417E1,7.7194534E1,3.7535004E1,2.3209522E0,1.4193668E1,4.3407978E1,2.7545987E2,5.7033924E1,3.597911E1,2.0612968E2,1.6449394E2,2.2139467E2,5.119013E0,1.5107359E1,5.1138424E1,4.9057446E0,4.6848534E1,3.0346003E1,2.8086388E0,3.4726364E1,1.0250436E0,1.2959087E0,5.615341E0,8.578327E0,1.1141571E1,3.2266407E1,2.7414798E2,1.3119025E0,5.3595398E1,3.4385269E0,1.3152977E0,2.0481439E2,1.6171855E2,2.7753918E0,1.0460731E0,2.203486E2,2.1542199E0,2.9647932E0,2.7823772E0,1.2324982E1,4.2988422E1,8.1500025E0,1.9617092E1,2.723144E1,7.293927E0,2.3052074E1,1.401527E0,1.4071119E0,3.314549E1,1.5808752E0,3.9159927E0,1.6993483E0,5.0578494E0,6.0837216E0,1.9095268E1,1.3171138E1,2.230745E1,2.5184053E2,1.7244623E0,1.7140646E0,7.113934E1,1.3367505E2,1.3179462E2,2.9923933E1,1.561158E0,1.2142339E0,1.4034952E1,2.0631364E2,1.0309714E0,1.9338217E0,1.4531482E0,1.3292291E0,1.3227821E1,2.9760601E1,2.3574839E0,5.7925186E0,8.617629E0,1.0999464E1,7.324462E0,1.5727613E1],"tree_param":{"num_deleted":"0","num_feature":"8","num_nodes":"93","size_leaf_vector":"0"}},{"base_weights":[1.0393472E-1,5.4232866E-1,-4.6541494E-1,2.0957033E-1,5.9848416E-1,-7.8142565E-1,3.9195228E-1,7.393898E-1,-1.392959E-1,5.670861E-1,8.989095E-1,-8.6463726E-1,6.8142945E-1,9.0233535E-1,2.545693E-1,1.1374281E-1,8.989135E-1,5.3453034E-1,-3.5665014E-1,9.824537E-1,5.3302336E-1,-4.9949955E-2,1.0396345E0,-6.644769E-1,-1.0217491E0,1.0255299E-1,8.7620634E-1,1.10442E0,-2.7631834E-1,1.0264241E-1,7.984042E-1,9.05964E-1,-7.2430164E-1,3.1848788E-1,9.9186885E-1,-6.944199E-2,9.6290773E-1,1.1013212E0,-4.6915796E-1,1.6993198E-3,1.084589E0,-1.8178508E0,5.433329E-1,8.598495E-1,-1.1863295E0,5.060665E-1,1.0989724E0,-8.1803495E-1,-2.3605572E-1,-6.2946445E-1,-1.0468804E0,7.212785E-1,-3.6857098E-1,1.23670794E-1,1.0464797E0,5.8621484E-1,-7.1062493E-1,1.0355303E0,-4.529953E-2,1.1074007E0,-2.1376549E-1,-2.2663808E-1,-1.218764E0,-7.1330416E-1,9.4264853E-1,1.0575626E0,6.237051E-2,9.8754954E-1,-5.3618336E-1,9.020382E-1,-5.7214236E-1,-8.163065E-1,7.362902E-1,6.4093035E-1,3.5517716E-1,-1.3874642E0,-3.6757672E-1,9.0164876E-1,-6.3486207E-1,-6.1974514E-1,-9.372187E-1,-3.7359878E-1,6.48117E-1,-9.965773E-1,5.554447E-1,1.2798728E-1,-6.5378356E-1,5.419068E-1,-4.8252818E-1,-1.4343914E-1,9.4419956E-1,-1.0140839E0,8.5770667E-1],"categories":[],"categories_nodes":[],"categories_segments":[],"categories_sizes":[],"default_left":[true,true,true,true,true,true,true,true,true,true,true,true,true,true,true,true,true,true,true,true,true,true,true,true,true,true,true,false,true,true,true,false,true,true,true,true,false,false,true,true,false,false,true,false,true,true,false,true,true,true,false,false,true,true,false,false,false,false,true,false,true,false,false,false,false,false,false,false,false,false,false,false,false,false,false,false,false,false,false,false,false,false,false,false,false,false,false,false,false,false,false,false,false],"id":6,"left_children":[1,3,5,7,9,11,13,15,17,19,21,23,25,27,29,31,33,35,37,39,41,43,45,47,49,51,53,-1,55,57,59,-1,61,63,65,67,-1,-1,69,71,-1,-1,73,-1,75,77,-1,79,81,83,-1,-1,85,87,-1,-1,-1,-1,89,-1,91,-1,-1,-1,-1,-1,-1,-1,-1,-1,-1,-1,-1,-1,-1,-1,-1,-1,-1,-1,-1,-1,-1,-1,-1,-1,-1,-1,-1,-1,-1,-1,-1],"loss_changes":[2.5593155E2,1.0697601E1,1.2118757E2,1.5845416E1,4.1597443E0,4.031285E1,8.242252E0,3.2885075E0,7.8352194E0,5.85585E0,6.078327E0,9.045059E0,1.9535532E0,6.3152027E0,7.8987913E0,5.9989305E0,1.1368732E0,3.4641058E0,7.088764E0,3.302534E0,1.1140511E1,8.033028E0,6.8966293E-1,8.940651E0,1.0305328E0,1.9259942E0,1.5911798E0,0E0,2.0996273E0,1.0625308E1,6.78722E0,0E0,8.228233E-1,4.0147405E0,1.3223705E0,3.67767E0,0E0,0E0,5.867527E0,3.0724745E0,0E0,0E0,7.4455414E0,0E0,5.588007E-2,3.1863346E0,0E0,1.8249664E0,4.868065E0,6.1327453E0,0E0,0E0,6.3532037E-1,1.1771673E0,0E0,0E0,0E0,0E0,6.652851E0,0E0,5.7891173E0,0E0,0E0,0E0,0E0,0E0,0E0,0E0,0E0,0E0,0E0,0E0,0E0,0E0,0E0,0E0,0E0,0E0,0E0,0E0,0E0,0E0,0E0,0E0,0E0,0E0,0E0,0E0,0E0,0E0,0E0,0E0,0E0],"parents":[2147483647,0,0,1,1,2,2,3,3,4,4,5,5,6,6,7,7,8,8,9,9,10,10,11,11,12,12,13,13,14,14,15,15,16,16,17,17,18,18,19,19,20,20,21,21,22,22,23,23,24,24,25,25,26,26,28,28,29,29,30,30,32,32,33,33,34,34,35,35,38,38,39,39,42,42,44,44,45,45,47,47,48,48,49,49,52,52,53,53,58,58,60,60],"right_children":[2,4,6,8,10,12,14,16,18,20,22,24,26,28,30,32,34,36,38,40,42,44,46,48,50,52,54,-1,56,58,60,-1,62,64,66,68,-1,-1,70,72,-1,-1,74,-1,76,78,-1,80,82,84,-1,-1,86,88,-1,-1,-1,-1,90,-1,92,-1,-1,-1,-1,-1,-1,-1,-1,-1,-1,-1,-1,-1,-1,-1,-1,-1,-1,-1,-1,-1,-1,-1,-1,-1,-1,-1,-1,-1,-1,-1,-1],"split_conditions":[1.7991667E1,1.55E1,3.5E0,9.5E0,5.5E0,1.8891666E1,4.645E2,2.525E0,1.2108334E1,1.625E2,3.075E2,6.7E2,1.665E2,1.215E2,9.9E1,3.5E0,2.93E2,4.17E2,2.75E2,1.2E1,1.665E2,1.4458333E1,2E0,1.8141666E1,1.65E1,1.38E2,5E-1,3.31326E-1,2.3366667E1,3.65E1,1.7E1,2.7178922E-1,2.1999998E0,9.466667E0,1.7E1,2.5E0,2.8887233E-1,3.3039638E-1,3.34E2,3.89E2,3.2537672E-1,-5.4535526E-1,9.915E2,2.5795487E-1,1.7066666E1,1.4833333E0,3.2969174E-1,3.985E2,2.11E3,1.8125E1,-3.1406412E-1,2.1638356E-1,3E0,1.982E3,3.1394392E-1,1.7586446E-1,-2.1318749E-1,3.106591E-1,4.5E0,3.322202E-1,1.8358334E1,-6.799143E-2,-3.656292E-1,-2.1399125E-1,2.8279456E-1,3.172688E-1,1.8711153E-2,2.962649E-1,-1.6085501E-1,2.7061146E-1,-1.7164272E-1,-2.4489196E-1,2.2088708E-1,1.9227912E-1,1.0655315E-1,-4.1623926E-1,-1.1027302E-1,2.7049464E-1,-1.9045863E-1,-1.8592355E-1,-2.8116563E-1,-1.1207964E-1,1.944351E-1,-2.989732E-1,1.6663343E-1,3.8396187E-2,-1.9613507E-1,1.6257204E-1,-1.4475846E-1,-4.3031745E-2,2.8325987E-1,-3.0422518E-1,2.57312E-1],"split_indices":[0,4,3,4,1,0,5,0,0,6,6,5,6,4,4,1,6,6,6,6,6,0,0,0,4,6,1,0,0,4,3,0,0,0,0,1,0,0,5,5,0,0,5,0,0,0,0,5,6,0,0,0,1,6,0,0,0,0,1,0,0,0,0,0,0,0,0,0,0,0,0,0,0,0,0,0,0,0,0,0,0,0,0,0,0,0,0,0,0,0,0,0,0],"split_type":[0,0,0,0,0,0,0,0,0,0,0,0,0,0,0,0,0,0,0,0,0,0,0,0,0,0,0,0,0,0,0,0,0,0,0,0,0,0,0,0,0,0,0,0,0,0,0,0,0,0,0,0,0,0,0,0,0,0,0,0,0,0,0,0,0,0,0,0,0,0,0,0,0,0,0,0,0,0,0,0,0,0,0,0,0,0,0,0,0,0,0,0,0],"sum_hessian":[1.0233579E3,5.781982E2,4.4515976E2,8.4169624E1,4.9402856E2,3.2533536E2,1.1982441E2,3.2973587E1,5.119604E1,4.4989655E2,4.4131996E1,3.0821225E2,1.71231E1,2.4232328E1,9.559208E1,7.047304E0,2.5926281E1,1.2130541E1,3.9065502E1,3.1987827E1,4.1790872E2,5.7831664E0,3.8348827E1,1.3783719E2,1.7037505E2,4.6952734E0,1.2427827E1,2.0739454E1,3.4928749E0,7.5647705E1,1.994437E1,3.5810328E0,3.4662714E0,4.189945E0,2.1736336E1,5.3813014E0,6.7492394E0,2.168994E0,3.6896507E1,3.1128936E0,2.8874933E1,1.059166E0,4.1684958E2,3.3469222E0,2.4362442E0,4.7915616E0,3.3557266E1,1.00798706E2,3.7038483E1,1.1825888E1,1.5854916E2,1.8001581E0,2.8951151E0,2.61167E0,9.816156E0,1.052613E0,2.4402618E0,9.533304E0,6.61144E1,1.5207667E1,4.736703E0,2.454367E0,1.0119045E0,1.5254393E0,2.664506E0,2.0172813E1,1.5635235E0,1.3065728E0,4.074729E0,2.0355108E0,3.4860996E1,1.4201934E0,1.6927E0,2.7289233E2,1.4395723E2,1.3981643E0,1.03808E0,3.7136798E0,1.0778818E0,4.0168686E1,6.063002E1,3.2552097E1,4.4863873E0,9.149957E0,2.6759307E0,1.257336E0,1.6377792E0,1.6081878E0,1.0034822E0,6.0926666E1,5.1877356E0,2.7420983E0,1.9946047E0],"tree_param":{"num_deleted":"0","num_feature":"8","num_nodes":"93","size_leaf_vector":"0"}},{"base_weights":[8.837232E-2,4.513252E-1,-4.046115E-1,3.988503E-1,7.931376E-1,-7.0728165E-1,3.2928878E-1,4.7810403E-1,-5.6188356E-2,-9.838496E-1,9.2053133E-1,-7.8652775E-1,5.96645E-1,8.372934E-1,2.1152419E-1,1.2670277E-2,5.474387E-1,-3.2843258E0,5.594772E-2,-1.6339828E0,-3.6306646E-1,5.8399457E-1,1.1328863E0,-5.6790036E-1,-9.766666E-1,9.2621736E-2,7.849997E-1,1.0509849E0,-2.109512E-1,8.827535E-2,7.284742E-1,5.389132E-1,-4.265204E-1,6.256655E-1,1.7601961E-1,-6.3507915E-1,3.8641524E-1,8.0800064E-2,-6.143238E-1,7.4591607E-1,-1.4435716E0,-6.7784345E-1,3.0538249E-3,6.44991E-1,-9.9569374E-1,6.612948E-1,-2.9680777E-1,9.3422705E-1,-1.4296754E-2,-2.6924955E-2,-3.125966E-1,9.7573596E-1,-2.5742302E-2,1.0459162E0,-1.5980418E-1,1.6038717E-1,9.9128157E-1,2.2739984E-1,-7.5347924E-1,5.6775016E-1,1.063821E0,-2.3379047E-1,7.801285E-1,-2.0972285E-1,-2.1289299E0,5.407482E-1,-1.1416924E0,1.0468823E0,4.3878105E-1,-7.1413624E-1,6.5514517E-1,5.244482E-1,-4.8531613E-1,-5.4758686E-1,-1.0288447E0,1.07344575E-1,-5.2588E-1,-9.970016E-2,8.819042E-1,-7.9500467E-1,7.7634597E-1],"categories":[],"categories_nodes":[],"categories_segments":[],"categories_sizes":[],"default_left":[true,true,true,true,true,true,true,true,true,true,true,true,true,true,true,true,true,false,true,false,true,true,false,true,true,true,true,false,true,true,true,true,true,true,true,true,true,false,false,true,false,true,true,false,true,false,true,false,false,false,false,false,true,false,true,false,false,false,false,false,false,false,false,false,false,false,false,false,false,false,false,false,false,false,false,false,false,false,false,false,false],"id":7,"left_children":[1,3,5,7,9,11,13,15,17,19,21,23,25,27,29,31,33,-1,35,-1,37,39,-1,41,43,45,47,-1,49,51,53,55,57,59,61,63,65,-1,-1,67,-1,69,71,-1,73,-1,75,-1,-1,-1,-1,-1,77,-1,79,-1,-1,-1,-1,-1,-1,-1,-1,-1,-1,-1,-1,-1,-1,-1,-1,-1,-1,-1,-1,-1,-1,-1,-1,-1,-1],"loss_changes":[1.5778073E2,8.791237E0,8.331282E1,1.5974159E1,1.597467E1,2.7864777E1,6.3971615E0,1.2149803E1,2.4251839E1,1.3990107E0,3.8142471E0,9.852921E0,1.4233146E0,4.778492E0,5.704891E0,1.1754875E1,9.415428E0,0E0,1.5143583E1,0E0,4.7463888E-1,9.709304E0,0E0,7.4624176E0,4.731102E0,1.3967315E0,1.3656783E0,0E0,7.15975E-2,7.5386734E0,5.0437365E0,3.8010335E0,6.1021304E0,6.2581177E0,1.4647469E1,1.3204919E1,1.1172321E1,0E0,0E0,1.852397E0,0E0,5.289295E0,5.394443E0,0E0,1.3881989E0,0E0,4.182172E-1,0E0,0E0,0E0,0E0,0E0,4.5703855E0,0E0,3.8405838E0,0E0,0E0,0E0,0E0,0E0,0E0,0E0,0E0,0E0,0E0,0E0,0E0,0E0,0E0,0E0,0E0,0E0,0E0,0E0,0E0,0E0,0E0,0E0,0E0,0E0,0E0],"parents":[2147483647,0,0,1,1,2,2,3,3,4,4,5,5,6,6,7,7,8,8,9,9,10,10,11,11,12,12,13,13,14,14,15,15,16,16,18,18,20,20,21,21,23,23,24,24,25,25,26,26,28,28,29,29,30,30,31,31,32,32,33,33,34,34,35,35,36,36,39,39,41,41,42,42,44,44,46,46,52,52,54,54],"right_children":[2,4,6,8,10,12,14,16,18,20,22,24,26,28,30,32,34,-1,36,-1,38,40,-1,42,44,46,48,-1,50,52,54,56,58,60,62,64,66,-1,-1,68,-1,70,72,-1,74,-1,76,-1,-1,-1,-1,-1,78,-1,80,-1,-1,-1,-1,-1,-1,-1,-1,-1,-1,-1,-1,-1,-1,-1,-1,-1,-1,-1,-1,-1,-1,-1,-1,-1,-1],"split_conditions":[1.7991667E1,1.4175E3,3.5E0,1.2045E3,5.083333E-1,1.8891666E1,4.645E2,1.15E1,1.2065E3,1.115E2,6.1E2,6.7E2,1.665E2,1.215E2,9.9E1,9.5E0,1.165E2,-9.852978E-1,5.905E2,-4.9019486E-1,3.9999998E-1,6.005E2,3.398659E-1,1.8275E1,1.5E0,1.38E2,2.1015E3,3.1529546E-1,2.3475E1,3.65E1,1.7E1,9.44E2,7.44E2,9.85E1,3.5E0,4.5E0,1.4145E3,2.424002E-2,-1.8429714E-1,1.5135E3,-4.330715E-1,5.985E2,1.8408333E1,1.934973E-1,1.65E1,1.9838846E-1,3E0,2.8026813E-1,-4.2890264E-3,-8.077486E-3,-9.377898E-2,2.927208E-1,4.5E0,3.1377488E-1,1.8358334E1,4.8116155E-2,2.9738447E-1,6.821995E-2,-2.2604378E-1,1.7032506E-1,3.191463E-1,-7.013714E-2,2.3403855E-1,-6.291686E-2,-6.3867897E-1,1.6222446E-1,-3.4250772E-1,3.1406468E-1,1.3163432E-1,-2.1424088E-1,1.9654356E-1,1.5733448E-1,-1.4559485E-1,-1.6427606E-1,-3.086534E-1,3.2203373E-2,-1.57764E-1,-2.9910048E-2,2.6457128E-1,-2.3850141E-1,2.329038E-1],"split_indices":[0,5,3,5,0,0,5,4,5,4,6,5,6,4,4,4,4,0,6,0,0,6,0,0,3,6,6,0,0,4,3,6,5,4,1,1,5,0,0,5,0,5,0,0,4,0,1,0,0,0,0,0,1,0,0,0,0,0,0,0,0,0,0,0,0,0,0,0,0,0,0,0,0,0,0,0,0,0,0,0,0],"split_type":[0,0,0,0,0,0,0,0,0,0,0,0,0,0,0,0,0,0,0,0,0,0,0,0,0,0,0,0,0,0,0,0,0,0,0,0,0,0,0,0,0,0,0,0,0,0,0,0,0,0,0,0,0,0,0,0,0,0,0,0,0,0,0,0,0,0,0,0,0,0,0,0,0,0,0,0,0,0,0,0,0],"sum_hessian":[8.797814E2,5.0676602E2,3.7301535E2,4.4120004E2,6.556599E1,2.6412357E2,1.0889177E2,3.7571188E2,6.5488144E1,3.936313E0,6.1629673E1,2.4936522E2,1.475836E1,1.93427E1,8.954907E1,4.8865734E1,3.2684616E2,1.248818E0,6.423933E1,1.1254847E0,2.8108282E0,2.5294083E1,3.633559E1,1.1784745E2,1.3151776E2,4.420683E0,1.0337677E1,1.6065107E1,3.277591E0,7.325477E1,1.6294304E1,2.2126486E1,2.6739248E1,2.6941788E2,5.7428276E1,2.0484106E1,4.375522E1,1.2612119E0,1.5496162E0,2.4008848E1,1.2852352E0,9.866188E1,1.9185572E1,1.1436932E0,1.3037407E2,1.5130728E0,2.90761E0,8.56904E0,1.7686368E0,1.6162697E0,1.6613214E0,7.479562E0,6.577521E1,1.1873598E1,4.420706E0,1.2783909E1,9.342577E0,9.014558E0,1.772469E1,2.399916E2,2.9426285E1,3.4581905E1,2.284637E1,1.6831833E1,3.652274E0,4.0328346E1,3.4268744E0,1.0909715E1,1.30991335E1,9.64988E1,2.1630793E0,9.243323E0,9.942248E0,1.0187392E1,1.20186676E2,1.2440773E0,1.6635326E0,6.1642536E1,4.1326704E0,2.7235103E0,1.6971954E0],"tree_param":{"num_deleted":"0","num_feature":"8","num_nodes":"81","size_leaf_vector":"0"}},{"base_weights":[7.415755E-2,3.6807725E-1,-3.461938E-1,3.2118562E-1,7.0018137E-1,-6.3408554E-1,2.7446342E-1,3.8234374E-1,-1.1035754E-1,-7.746547E-1,8.3510756E-1,-7.0339257E-1,6.569355E-1,7.652091E-1,1.7585613E-1,9.018186E-1,3.4786093E-1,-1.9292418E0,1.11100316E-1,-1.4150131E0,-2.2769542E-1,4.8709518E-1,1.0843471E0,-4.725827E-1,-9.2851686E-1,9.484839E-1,4.606262E-3,1.0057949E0,-1.7293847E-1,-4.034089E-2,4.0386495E-1,1.0274105E0,5.180804E-1,-9.370807E-1,3.748253E-1,-3.4920857E0,7.2444385E-1,4.350155E-1,-8.641411E-1,1.5542904E-1,-5.035628E-1,6.4619946E-1,-1.0539765E0,-6.451519E-1,-1.0986581E-1,5.8683187E-1,-9.490649E-1,-5.731736E-1,6.589083E-1,-2.189161E-2,-2.5771663E-1,1.7675379E-1,-5.9273E-1,7.414926E-1,-2.2208437E-2,-6.366036E-1,8.969864E-1,-1.6604428E0,7.041399E-1,4.5190227E-1,5.193105E-4,1.4987245E-1,1.3422475E0,-1.3589964E0,8.335539E-1,1.0011017E0,3.3275524E-1,-3.9762196E-1,-8.069314E-1,-4.7315434E-1,2.2605541E-1,-3.574916E-1,-1.0046724E0,6.5068835E-1,-5.473128E-1,-9.9198526E-1,6.375245E-1,1.0356293E0,3.1288695E-1,8.128818E-1,-2.1201298E-1],"categories":[],"categories_nodes":[],"categories_segments":[],"categories_sizes":[],"default_left":[true,true,true,true,true,true,true,true,true,true,true,true,true,true,true,true,true,true,true,false,true,true,false,true,true,false,true,false,true,true,true,false,true,true,true,false,false,true,true,false,false,true,false,true,true,false,true,false,false,false,false,true,true,true,true,false,false,false,false,false,false,false,false,false,false,false,false,false,false,false,false,false,false,false,false,false,false,false,false,false,false],"id":8,"left_children":[1,3,5,7,9,11,13,15,17,19,21,23,25,27,29,31,33,35,37,-1,39,41,-1,43,45,-1,47,-1,49,51,53,-1,55,57,59,-1,-1,61,63,-1,-1,65,-1,67,69,-1,71,-1,-1,-1,-1,73,75,77,79,-1,-1,-1,-1,-1,-1,-1,-1,-1,-1,-1,-1,-1,-1,-1,-1,-1,-1,-1,-1,-1,-1,-1,-1,-1,-1],"loss_changes":[9.524218E1,6.838127E0,5.6870934E1,1.05800705E1,1.1644897E1,1.988424E1,4.7646747E0,5.9547462E0,2.0490631E1,1.4820125E0,3.9056053E0,1.0290459E1,2.1972547E0,3.9298906E0,4.2360106E0,4.8727608E-1,1.17775E1,2.54149E1,1.4850094E1,0E0,4.9786106E-1,6.356542E0,0E0,6.4384136E0,3.7794952E0,0E0,2.109321E0,0E0,4.8778817E-2,5.482986E0,6.022887E0,0E0,3.7358732E0,9.555502E0,9.339222E0,0E0,0E0,8.868696E0,1.1011607E1,0E0,0E0,2.0698051E0,0E0,2.4927864E0,4.345416E0,0E0,3.0124054E0,0E0,0E0,0E0,0E0,1.1668543E1,6.9602194E0,2.6163435E0,3.252058E0,0E0,0E0,0E0,0E0,0E0,0E0,0E0,0E0,0E0,0E0,0E0,0E0,0E0,0E0,0E0,0E0,0E0,0E0,0E0,0E0,0E0,0E0,0E0,0E0,0E0,0E0],"parents":[2147483647,0,0,1,1,2,2,3,3,4,4,5,5,6,6,7,7,8,8,9,9,10,10,11,11,12,12,13,13,14,14,15,15,16,16,17,17,18,18,20,20,21,21,23,23,24,24,26,26,28,28,29,29,30,30,32,32,33,33,34,34,37,37,38,38,41,41,43,43,44,44,46,46,51,51,52,52,53,53,54,54],"right_children":[2,4,6,8,10,12,14,16,18,20,22,24,26,28,30,32,34,36,38,-1,40,42,-1,44,46,-1,48,-1,50,52,54,-1,56,58,60,-1,-1,62,64,-1,-1,66,-1,68,70,-1,72,-1,-1,-1,-1,74,76,78,80,-1,-1,-1,-1,-1,-1,-1,-1,-1,-1,-1,-1,-1,-1,-1,-1,-1,-1,-1,-1,-1,-1,-1,-1,-1,-1],"split_conditions":[1.7991667E1,1.4175E3,3.5E0,1.2615E3,5.083333E-1,1.8991667E1,4.645E2,1.07E2,1.2675E3,1.01E2,6.1E2,6.7E2,2.0875E1,1.215E2,1.8625E1,1.6925E3,1.285E2,7.85E1,1.5041667E1,-4.2450395E-1,3.9999998E-1,6.005E2,3.2530415E-1,1.8141666E1,1.5E0,2.8454518E-1,2.1475E1,3.0173847E-1,2.3475E1,1.25E1,2.2425E1,3.0822316E-1,1.71E3,6.4E1,1.115E2,-1.0476258E0,2.1733317E-1,1.3700001E1,2.5E0,4.6628714E-2,-1.5106885E-1,2.51E2,-3.1619298E-1,3.985E2,1.5E0,1.7604956E-1,1.65E1,-1.7195208E-1,1.976725E-1,-6.5674833E-3,-7.731499E-2,1.8358334E1,1.8341667E1,9.65E1,1.05E1,-1.9098109E-1,2.6909593E-1,-4.9813285E-1,2.1124198E-1,1.3557069E-1,1.5579315E-4,4.4961736E-2,4.0267426E-1,-4.0769893E-1,2.500662E-1,3.0033052E-1,9.9826574E-2,-1.1928659E-1,-2.4207942E-1,-1.419463E-1,6.781663E-2,-1.0724749E-1,-3.0140173E-1,1.9520651E-1,-1.6419384E-1,-2.975956E-1,1.9125736E-1,3.106888E-1,9.386609E-2,2.4386455E-1,-6.360389E-2],"split_indices":[0,5,3,5,0,0,5,5,5,4,6,5,0,4,0,6,5,4,0,0,0,6,0,0,3,0,0,0,0,3,0,0,6,4,4,0,0,0,1,0,0,6,0,5,1,0,4,0,0,0,0,0,0,4,3,0,0,0,0,0,0,0,0,0,0,0,0,0,0,0,0,0,0,0,0,0,0,0,0,0,0],"split_type":[0,0,0,0,0,0,0,0,0,0,0,0,0,0,0,0,0,0,0,0,0,0,0,0,0,0,0,0,0,0,0,0,0,0,0,0,0,0,0,0,0,0,0,0,0,0,0,0,0,0,0,0,0,0,0,0,0,0,0,0,0,0,0,0,0,0,0,0,0,0,0,0,0,0,0,0,0,0,0,0,0],"sum_hessian":[7.6885114E2,4.525451E2,3.16306E2,3.9827725E2,5.4267876E1,2.1606339E2,1.00242615E2,3.4893964E2,4.933759E1,4.1511903E0,5.0116684E1,2.054872E2,1.0576188E1,1.5640968E1,8.460165E1,2.0155125E1,3.2878452E2,4.518072E0,4.4819515E1,1.1812155E0,2.9699748E0,2.2147097E1,2.796959E1,1.0299265E2,1.0249455E2,6.995613E0,3.5805755E0,1.2391172E1,3.2497952E0,4.3848114E1,4.075353E1,1.392146E1,6.233663E0,6.0639663E0,3.2272055E2,2.644626E0,1.8734462E0,3.4060616E1,1.07589E1,1.4260534E0,1.5439214E0,2.060089E1,1.5462081E0,6.9261536E1,3.3731113E1,1.0025244E0,1.0149203E2,1.9673256E0,1.6132498E0,1.6206144E0,1.6291807E0,3.1965399E1,1.1882716E1,2.2323622E1,1.8429905E1,1.3721235E0,4.86154E0,4.2007766E0,1.8631896E0,2.6744174E2,5.5278828E1,2.6801958E1,7.2586584E0,8.485109E0,2.2737906E0,8.6326065E0,1.1968282E1,2.8742296E1,4.051924E1,1.6009165E1,1.7721949E1,9.358768E0,9.2133255E1,1.9380997E1,1.2584402E1,9.117487E0,2.7652292E0,1.2398621E1,9.925002E0,2.8051684E0,1.5624737E1],"tree_param":{"num_deleted":"0","num_feature":"8","num_nodes":"81","size_leaf_vector":"0"}},{"base_weights":[6.0479715E-2,2.916034E-1,-2.9207087E-1,7.776802E-1,2.5717902E-1,-5.7738656E-1,2.0049824E-1,1.5911968E-1,1.0425119E0,-1.1762041E0,2.7237427E-1,-7.043616E-1,9.1750465E-2,-7.952655E-2,4.639247E-1,9.123738E-1,-1.2153921E0,-2.9614094E-1,-1.403547E0,4.5707294E-1,1.6351387E-1,-2.0525832E-1,-8.330459E-1,4.460273E-1,-5.1259905E-1,7.39057E-1,-2.8891954E-1,1.0133703E0,1.7941014E-1,-2.1939378E0,5.8797944E-1,5.925569E-1,-1.4068912E-1,1.02885194E-1,9.3468475E-1,-6.044443E-1,9.0221953E-1,6.8305117E-1,-8.539094E-1,1.4497451E-1,9.355047E-1,-1.0176958E0,4.015531E-1,-3.6315623E-1,9.4953233E-1,-4.327137E-1,7.6653624E-1,-5.4943144E-1,2.9567534E-1,-1.5648139E-1,6.4891124E-1,-7.444876E-1,9.7170794E-1,3.808411E-1,-1.16567895E-1,1.0398659E0,3.0496222E-1,-4.723941E-2,-9.944459E-1,1.5686663E0,3.892231E-1,-2.7199748E-1,-9.1120154E-1,4.7353497E-1,-2.8426018E-1,-2.7011898E-1,-1.1303107E0,7.773562E-1,-3.1850332E-1,-1.6697624E-1,1.1132852E0,4.7598308E-1,-5.3936636E-1,1.597011E-1,8.835361E-1,1.8317224E-1,-1.2743013E0,9.565961E-1,4.902114E-2],"categories":[],"categories_nodes":[],"categories_segments":[],"categories_sizes":[],"default_left":[true,true,true,true,true,true,true,true,false,true,true,true,true,true,true,false,true,false,false,true,true,true,true,true,true,true,true,false,true,false,false,true,true,true,true,true,true,false,true,true,false,true,true,false,true,true,true,true,true,false,false,false,false,false,false,false,false,false,false,false,false,false,false,false,false,false,false,false,false,false,false,false,false,false,false,false,false,false,false],"id":9,"left_children":[1,3,5,7,9,11,13,15,-1,17,19,21,23,25,27,-1,29,-1,-1,31,33,35,37,39,41,43,45,-1,47,-1,-1,49,51,53,55,57,59,-1,61,63,-1,65,67,-1,69,71,73,75,77,-1,-1,-1,-1,-1,-1,-1,-1,-1,-1,-1,-1,-1,-1,-1,-1,-1,-1,-1,-1,-1,-1,-1,-1,-1,-1,-1,-1,-1,-1],"loss_changes":[5.6243874E1,6.7742004E0,3.8540623E1,4.2688236E0,8.830595E0,1.4796249E1,7.48916E0,1.0733448E1,0E0,4.4200706E-1,7.7152348E0,9.196381E0,6.3390293E0,8.753608E0,7.978689E0,0E0,7.853981E0,0E0,0E0,1.1673973E1,1.1373861E1,1.4348727E1,4.240616E0,2.594433E0,5.4934473E0,2.7644439E0,6.4622087E0,0E0,3.1798263E0,0E0,0E0,5.034569E0,1.9027727E1,1.3986413E1,8.590431E-1,5.0705643E0,2.3548217E0,0E0,3.5694733E0,1.9192848E0,0E0,3.1566238E-1,1.5021579E0,0E0,1.8376312E0,3.7640557E0,2.283938E-1,3.020649E0,5.06526E0,0E0,0E0,0E0,0E0,0E0,0E0,0E0,0E0,0E0,0E0,0E0,0E0,0E0,0E0,0E0,0E0,0E0,0E0,0E0,0E0,0E0,0E0,0E0,0E0,0E0,0E0,0E0,0E0,0E0,0E0],"parents":[2147483647,0,0,1,1,2,2,3,3,4,4,5,5,6,6,7,7,9,9,10,10,11,11,12,12,13,13,14,14,16,16,19,19,20,20,21,21,22,22,23,23,24,24,25,25,26,26,28,28,31,31,32,32,33,33,34,34,35,35,36,36,38,38,39,39,41,41,42,42,44,44,45,45,46,46,47,47,48,48],"right_children":[2,4,6,8,10,12,14,16,-1,18,20,22,24,26,28,-1,30,-1,-1,32,34,36,38,40,42,44,46,-1,48,-1,-1,50,52,54,56,58,60,-1,62,64,-1,66,68,-1,70,72,74,76,78,-1,-1,-1,-1,-1,-1,-1,-1,-1,-1,-1,-1,-1,-1,-1,-1,-1,-1,-1,-1,-1,-1,-1,-1,-1,-1,-1,-1,-1,-1],"split_conditions":[1.7991667E1,1.625E2,1.8325E1,4.35E1,1.77E2,3.5E0,1.8991667E1,1.4291667E1,3.127536E-1,7.258333E0,8.708333E0,3.985E2,1.25E1,4.4E1,2.0983334E1,2.7371216E-1,1.49E1,-8.884229E-2,-4.2106414E-1,1.886E3,1.4555E3,3.76E2,1.5E0,5.92E2,2.5E0,3.325E2,8.5E0,3.040111E-1,2.1475E1,-6.5818137E-1,1.7639384E-1,2.525E2,1.989E3,6.675E2,1.7E1,2.0815E3,3.81E2,2.0491536E-1,1.2E1,2.5E0,2.8065142E-1,1.805E1,1.8141666E1,-1.08946875E-1,1.61E2,1.8341667E1,1.8416666E1,9.4E1,1.05E1,-4.6944417E-2,1.9467337E-1,-2.2334628E-1,2.915124E-1,1.1425234E-1,-3.497037E-2,3.1195977E-1,9.148867E-2,-1.4171824E-2,-2.983338E-1,4.7059992E-1,1.1676694E-1,-8.159925E-2,-2.7336046E-1,1.420605E-1,-8.527806E-2,-8.1035696E-2,-3.390932E-1,2.3320687E-1,-9.5551E-2,-5.0092876E-2,3.3398557E-1,1.4279494E-1,-1.6180992E-1,4.791033E-2,2.6506084E-1,5.4951675E-2,-3.822904E-1,2.8697884E-1,1.47063425E-2],"split_indices":[0,6,0,6,6,3,0,0,0,0,0,5,3,4,0,0,0,0,0,6,5,5,3,6,1,5,3,0,0,0,0,6,6,5,3,6,5,0,4,1,0,0,0,0,6,0,0,4,3,0,0,0,0,0,0,0,0,0,0,0,0,0,0,0,0,0,0,0,0,0,0,0,0,0,0,0,0,0,0],"split_type":[0,0,0,0,0,0,0,0,0,0,0,0,0,0,0,0,0,0,0,0,0,0,0,0,0,0,0,0,0,0,0,0,0,0,0,0,0,0,0,0,0,0,0,0,0,0,0,0,0,0,0,0,0,0,0,0,0,0,0,0,0,0,0,0,0,0,0,0,0,0,0,0,0,0,0,0,0,0,0],"sum_hessian":[6.882095E2,4.157963E2,2.7241318E2,2.6071531E1,3.8972476E2,1.7238734E2,1.0002583E2,8.295885E0,1.7775646E1,3.2866406E0,3.8643814E2,1.4484836E2,2.7538979E1,4.8823795E1,5.120204E1,5.576238E0,2.7196465E0,1.147437E0,2.1392038E0,1.4211655E2,2.4432158E2,3.0223045E1,1.1462531E2,1.7526632E1,1.0012347E1,9.429881E0,3.9393913E1,1.6594162E1,3.4607876E1,1.6226102E0,1.0970364E0,1.15864365E2,2.6252186E1,2.2756413E2,1.6757446E1,2.2549416E1,7.673631E0,1.1251401E0,1.13500175E2,1.1654636E1,5.871995E0,6.376095E0,3.6362522E0,1.3956676E0,8.034213E0,3.5189724E1,4.2041874E0,4.2486057E0,3.0359272E1,7.9828544E0,1.0788151E2,1.7230417E1,9.02177E0,1.0007512E2,1.2748901E2,1.3800992E1,2.9564543E0,9.7460785E0,1.2803336E1,2.4425726E0,5.231058E0,1.0688227E1,1.0281194E2,6.543027E0,5.1116095E0,1.2796881E0,5.0964065E0,2.3369846E0,1.2992675E0,1.0251048E0,7.0091085E0,3.3325956E0,3.185713E1,1.0618308E0,3.1423566E0,2.4846997E0,1.7639061E0,7.4685845E0,2.2890686E1],"tree_param":{"num_deleted":"0","num_feature":"8","num_nodes":"79","size_leaf_vector":"0"}},{"base_weights":[5.040037E-2,-2.482184E-1,2.3170277E-1,8.4499776E-1,-3.4697947E-1,1.9068733E-1,8.199102E-1,1.0201529E0,2.830201E-2,4.6925414E-2,-5.261934E-1,4.0432853E-1,1.09196946E-1,-3.2217166E-1,9.2328876E-1,-8.593637E-1,7.308227E-1,-4.058869E-1,3.504569E-1,-7.485402E-1,-1.7251939E-1,1.9467692E-1,9.268808E-1,6.8168336E-1,4.8001945E-2,2.3500803E-1,1.015623E0,-5.964424E-1,9.7869843E-1,-3.1279944E-2,9.174826E-1,-3.0560705E-1,-9.017488E-1,7.0713304E-2,-5.954609E-1,4.8979408E-1,-4.2945197E-1,-3.9171475E-1,1.0271361E0,9.9354845E-1,3.496868E-1,-2.0400806E-1,2.175067E-1,7.2258705E-1,-6.2650055E-1,-7.9902554E-1,5.735604E-1,9.1202223E-1,-2.5537887E-1,2.7238524E-1,1.0334653E0,-7.416381E-1,4.29207E-1,-6.9123745E-1,-1.0055002E0,-1.0256428E-1,2.0460079E0,-7.1389925E-1,6.3867205E-1,6.343416E-1,-2.576871E-1,9.304611E-1,-1.0556304E0,-2.0047966E-1,9.306885E-1,-4.5711353E-2,-1.4926056E0,7.9435325E-1,8.29834E-2],"categories":[],"categories_nodes":[],"categories_segments":[],"categories_sizes":[],"default_left":[true,true,true,true,true,true,true,false,true,true,true,true,true,false,true,false,false,true,true,true,true,true,true,true,true,true,false,true,false,true,true,true,true,true,true,true,true,false,false,false,true,true,true,false,false,false,false,false,false,false,false,false,false,false,false,false,false,false,false,false,false,false,false,false,false,false,false,false,false],"id":10,"left_children":[1,3,5,7,9,11,13,-1,15,17,19,21,23,-1,25,-1,-1,27,29,31,33,35,37,39,41,43,-1,45,-1,47,49,51,53,55,57,59,61,-1,-1,-1,63,65,67,-1,-1,-1,-1,-1,-1,-1,-1,-1,-1,-1,-1,-1,-1,-1,-1,-1,-1,-1,-1,-1,-1,-1,-1,-1,-1],"loss_changes":[3.389429E1,2.5836723E1,9.238089E0,2.8168468E0,1.5392323E1,6.31592E0,3.2585144E0,0E0,3.460196E0,9.624493E0,1.1643185E1,1.0829708E1,9.279754E0,0E0,1.2393131E0,0E0,0E0,8.010901E0,9.085218E0,5.9416504E0,6.120398E0,1.3654389E1,4.1712837E0,2.3025703E0,1.0348686E1,2.1547263E0,0E0,6.470619E0,0E0,5.723374E0,9.805269E-1,8.347012E0,7.804985E-1,1.3355226E1,3.6247787E0,5.568385E0,2.1390099E1,0E0,0E0,0E0,4.642535E0,1.9823921E1,1.116298E1,0E0,0E0,0E0,0E0,0E0,0E0,0E0,0E0,0E0,0E0,0E0,0E0,0E0,0E0,0E0,0E0,0E0,0E0,0E0,0E0,0E0,0E0,0E0,0E0,0E0,0E0],"parents":[2147483647,0,0,1,1,2,2,3,3,4,4,5,5,6,6,8,8,9,9,10,10,11,11,12,12,14,14,17,17,18,18,19,19,20,20,21,21,22,22,23,23,24,24,25,25,27,27,29,29,30,30,31,31,32,32,33,33,34,34,35,35,36,36,40,40,41,41,42,42],"right_children":[2,4,6,8,10,12,14,-1,16,18,20,22,24,-1,26,-1,-1,28,30,32,34,36,38,40,42,44,-1,46,-1,48,50,52,54,56,58,60,62,-1,-1,-1,64,66,68,-1,-1,-1,-1,-1,-1,-1,-1,-1,-1,-1,-1,-1,-1,-1,-1,-1,-1,-1,-1,-1,-1,-1,-1,-1,-1],"split_conditions":[3.5E0,1.5E0,5.5E0,5.5E0,1.7991667E1,8.041667E0,3.075E2,3.060459E-1,4.5E1,1.15E1,1.8125E1,3.858333E0,3E1,-9.66515E-2,2E0,-2.578091E-1,2.1924682E-1,1.2608334E1,2.98E2,3.985E2,1.185E2,3.5E0,1.32E2,1.4591667E1,1.3525E1,1.4833333E0,3.046869E-1,1.8235E3,2.9360953E-1,6.0249996E0,3.975E0,3.76E2,6.385E2,1.07E2,1.9E1,1.984E3,6.5E0,-1.1751443E-1,3.0814084E-1,2.9806456E-1,1.7241667E1,1.3091667E1,1.5141666E1,2.1677612E-1,-1.8795018E-1,-2.3970766E-1,1.7206813E-1,2.736067E-1,-7.6613665E-2,8.171558E-2,3.1003958E-1,-2.2249144E-1,1.2876211E-1,-2.0737125E-1,-3.0165008E-1,-3.0769287E-2,6.138024E-1,-2.1416979E-1,1.9160162E-1,1.9030249E-1,-7.730613E-2,2.7913836E-1,-3.1668913E-1,-6.01439E-2,2.7920657E-1,-1.3713406E-2,-4.4778168E-1,2.3830599E-1,2.489502E-2],"split_indices":[3,3,1,1,0,0,6,0,6,4,0,0,4,0,0,0,0,0,6,5,4,1,5,0,0,0,0,6,0,0,0,5,5,4,0,6,3,0,0,0,0,0,0,0,0,0,0,0,0,0,0,0,0,0,0,0,0,0,0,0,0,0,0,0,0,0,0,0,0],"split_type":[0,0,0,0,0,0,0,0,0,0,0,0,0,0,0,0,0,0,0,0,0,0,0,0,0,0,0,0,0,0,0,0,0,0,0,0,0,0,0,0,0,0,0,0,0,0,0,0,0,0,0,0,0,0,0,0,0,0,0,0,0,0,0,0,0,0,0,0,0],"sum_hessian":[6.239832E2,2.3558606E2,3.8839716E2,1.8893389E1,2.1669267E2,3.6431763E2,2.407952E1,1.5351795E1,3.5415936E0,6.799049E1,1.4870216E2,9.949984E1,2.6481778E2,1.8230302E0,2.2256489E1,1.4659915E0,2.075602E0,2.715022E1,4.0840275E1,9.0616905E1,5.8085266E1,7.198964E1,2.7510197E1,2.4594435E1,2.4022336E2,3.0519245E0,1.9204565E1,2.4366037E1,2.7841837E0,2.4972773E1,1.5867502E1,2.4058212E1,6.655869E1,3.740598E1,2.0679287E1,4.9024033E1,2.2965609E1,1.7384375E0,2.5771759E1,1.1654238E1,1.2940197E1,9.6519745E1,1.4370361E2,2.0518909E0,1.0000336E0,2.1040073E1,3.3259635E0,4.204594E0,2.0768177E1,2.928369E0,1.2939133E1,1.5092935E1,8.965278E0,2.450353E1,4.2055164E1,3.5260887E1,2.1450932E0,1.9253124E1,1.4261622E0,4.120684E1,7.8171945E0,7.087432E0,1.5878177E1,6.9828687E0,5.9573283E0,8.688224E1,9.637505E0,2.6247465E1,1.1745615E2],"tree_param":{"num_deleted":"0","num_feature":"8","num_nodes":"69","size_leaf_vector":"0"}},{"base_weights":[4.7031898E-2,-2.033689E-1,1.8667836E-1,7.826725E-1,-2.8614417E-1,1.5286975E-1,7.608451E-1,9.821077E-1,2.746017E-2,5.5930134E-2,-4.501939E-1,2.7393422E-1,3.1655423E-2,-2.4562155E-1,8.821997E-1,-6.353531E-1,6.7479384E-1,-7.719681E-2,7.8836936E-1,-6.8004847E-1,-1.2601475E-1,1.838447E-1,8.64984E-1,7.8743035E-1,-5.91382E-2,2.0086502E-1,9.836382E-1,-3.1659237E-1,4.8656332E-1,-4.066847E-1,-9.6939564E-1,2.2004503E-1,-3.9190462E-1,2.1883701E-1,-1.7644266E0,1.0143546E0,5.2437946E-2,9.9879843E-1,-3.0659243E-1,-2.2695868E0,-1.8402034E-2,6.546907E-1,-4.875155E-1,8.543087E-1,-4.751221E-1,1.3595302E0,-2.0084532E-1,-4.8881707E-1,1.1928333E0,-9.934423E-1,-4.160891E-1,-5.8206797E-1,8.9011866E-1,-1.0349372E-1,-8.608257E-1,5.4025143E-1,8.134879E-2,-4.386449E-1,6.688707E-1,5.5721873E-1,-8.937138E-2],"categories":[],"categories_nodes":[],"categories_segments":[],"categories_sizes":[],"default_left":[true,true,true,true,true,true,true,false,true,true,true,true,true,false,true,false,false,true,false,true,true,true,true,true,true,true,false,true,true,true,true,true,true,true,false,false,true,false,false,false,true,false,false,false,false,false,false,false,false,false,false,false,false,false,false,false,false,false,false,false,false],"id":11,"left_children":[1,3,5,7,9,11,13,-1,15,17,19,21,23,-1,25,-1,-1,27,-1,29,31,33,35,37,39,41,-1,43,45,47,49,51,53,55,-1,-1,57,-1,-1,-1,59,-1,-1,-1,-1,-1,-1,-1,-1,-1,-1,-1,-1,-1,-1,-1,-1,-1,-1,-1,-1],"loss_changes":[2.0070974E1,1.7004309E1,7.0332556E0,2.4114885E0,1.07099905E1,5.114002E0,2.6875381E0,0E0,2.3213193E0,6.165243E0,9.5115185E0,9.133591E0,1.2093628E1,0E0,1.0651827E0,0E0,0E0,7.426638E0,0E0,5.5487328E0,5.115916E0,1.07967415E1,2.7155514E0,4.6764154E0,1.41551485E1,1.4514194E0,0E0,7.539443E0,1.0148071E1,5.8849163E0,6.266785E-2,1.3627633E1,4.1400976E0,6.624461E0,0E0,0E0,1.6849718E0,0E0,0E0,0E0,6.4152474E0,0E0,0E0,0E0,0E0,0E0,0E0,0E0,0E0,0E0,0E0,0E0,0E0,0E0,0E0,0E0,0E0,0E0,0E0,0E0,0E0],"parents":[2147483647,0,0,1,1,2,2,3,3,4,4,5,5,6,6,8,8,9,9,10,10,11,11,12,12,14,14,17,17,19,19,20,20,21,21,22,22,23,23,24,24,25,25,27,27,28,28,29,29,30,30,31,31,32,32,33,33,36,36,40,40],"right_children":[2,4,6,8,10,12,14,-1,16,18,20,22,24,-1,26,-1,-1,28,-1,30,32,34,36,38,40,42,-1,44,46,48,50,52,54,56,-1,-1,58,-1,-1,-1,60,-1,-1,-1,-1,-1,-1,-1,-1,-1,-1,-1,-1,-1,-1,-1,-1,-1,-1,-1,-1],"split_conditions":[3.5E0,1.5E0,5.5E0,5.5E0,1.7991667E1,1.05E1,3.075E2,2.9463232E-1,4.5E1,1.8235E3,1.8125E1,1.781E3,2.695E2,-7.3686466E-2,2E0,-1.9060594E-1,2.0243816E-1,1.2608334E1,2.3651081E-1,4.955E2,1.9105E3,1.7675E3,1.285E2,2.3458334E1,2.985E2,1.2166667E0,2.9509148E-1,3.9083333E0,1.5016666E1,4.685E2,1.8108334E1,1.895E2,7.17E2,9.141666E0,-5.29328E-1,3.043064E-1,1.295E2,2.9963955E-1,-9.197773E-2,-6.808761E-1,3.49E2,1.9640721E-1,-1.4625466E-1,2.5629264E-1,-1.4253664E-1,4.078591E-1,-6.0253598E-2,-1.4664513E-1,3.5785002E-1,-2.980327E-1,-1.2482673E-1,-1.7462039E-1,2.670356E-1,-3.1048117E-2,-2.5824773E-1,1.6207543E-1,2.440464E-2,-1.3159347E-1,2.0066121E-1,1.6716562E-1,-2.6811415E-2],"split_indices":[3,3,1,1,0,3,6,0,6,6,0,6,5,0,0,0,0,0,0,5,6,6,4,0,5,0,0,0,0,5,0,6,5,0,0,0,4,0,0,0,5,0,0,0,0,0,0,0,0,0,0,0,0,0,0,0,0,0,0,0,0],"split_type":[0,0,0,0,0,0,0,0,0,0,0,0,0,0,0,0,0,0,0,0,0,0,0,0,0,0,0,0,0,0,0,0,0,0,0,0,0,0,0,0,0,0,0,0,0,0,0,0,0,0,0,0,0,0,0,0,0,0,0,0,0],"sum_hessian":[5.719022E2,2.0459161E2,3.673106E2,1.5189905E1,1.8940172E2,3.4808084E2,1.9229769E1,1.1778912E1,3.410994E0,6.1604317E1,1.277974E2,1.7351773E2,1.7456311E2,1.9589574E0,1.7270811E1,1.6944908E0,1.7165033E0,5.288638E1,8.717937E0,7.413517E1,5.3662228E1,1.517054E2,2.181233E1,1.7898823E1,1.5666429E2,2.6242962E0,1.4646516E1,3.743035E1,1.5456028E1,3.9357388E1,3.4777782E1,2.3390957E1,3.027127E1,1.4990076E2,1.8046464E0,1.8215418E1,3.596912E0,1.5073604E1,2.8252196E0,1.8448294E0,1.5481946E2,1.6110963E0,1.0131998E0,3.9400651E0,3.3490284E1,6.378263E0,9.077765E0,3.8095642E1,1.2617456E0,3.256696E1,2.2108235E0,1.0706298E1,1.2684658E1,1.9499046E1,1.0772224E1,4.4032925E1,1.0586783E2,2.162536E0,1.434376E0,1.6240871E1,1.3857858E2],"tree_param":{"num_deleted":"0","num_feature":"8","num_nodes":"61","size_leaf_vector":"0"}},{"base_weights":[3.9010905E-2,-1.6198902E-1,1.453265E-1,7.2221714E-1,-2.291187E-1,1.17455974E-1,7.006914E-1,9.4532835E-1,3.3100314E-2,6.053972E-2,-3.7777165E-1,7.0464045E-2,4.454476E-1,-1.8863137E-1,8.4049827E-1,6.6794443E-1,-5.778932E-1,-2.7991578E-1,2.8030086E-1,-6.0265887E-1,-1.06191166E-1,9.644111E-2,-8.376308E-1,-9.640254E-1,6.0006756E-1,1.7552151E-1,9.527349E-1,-4.2020464E-1,8.080016E-1,2.3457022E-2,9.7306526E-1,-1.3403326E-1,-8.1362027E-1,5.366597E-1,-2.0307948E-1,3.2055643E-1,7.426939E-3,-2.104786E0,2.8512704E-1,-1.3679864E0,-4.0612724E-1,9.2961425E-1,2.0565976E-1,-3.824703E-1,5.929507E-1,6.6765213E-1,-5.313977E-1,-6.114924E-1,4.589993E-1,-6.109837E-1,4.5126894E-1,-5.591252E-1,-9.7557425E-1,1.5604802E0,-4.74851E-1,-1.01404805E-2,-5.501345E-1,8.7642896E-1,-1.8297127E-1,-2.5323996E-1,1.3404764E-1,-1.0541915E0,8.8420826E-1,-5.7004392E-2,-5.332704E-1,5.2834547E-1,1.0183941E0,-8.8053274E-1,3.6618727E-1],"categories":[],"categories_nodes":[],"categories_segments":[],"categories_sizes":[],"default_left":[true,true,true,true,true,true,true,false,true,true,true,true,true,false,true,false,false,true,true,true,true,true,true,true,true,true,false,true,false,true,false,true,true,true,true,true,true,false,true,false,true,true,true,false,false,false,false,false,false,false,false,false,false,false,false,false,false,false,false,false,false,false,false,false,false,false,false,false,false],"id":12,"left_children":[1,3,5,7,9,11,13,-1,15,17,19,21,23,-1,25,-1,-1,27,29,31,33,35,37,39,41,43,-1,45,-1,47,-1,49,51,53,55,57,59,-1,61,-1,63,65,67,-1,-1,-1,-1,-1,-1,-1,-1,-1,-1,-1,-1,-1,-1,-1,-1,-1,-1,-1,-1,-1,-1,-1,-1,-1,-1],"loss_changes":[1.1468348E1,1.1191098E1,5.3477454E0,2.0209932E0,7.489419E0,5.1358643E0,2.2178478E0,0E0,2.0542846E0,4.543042E0,6.9432945E0,7.026246E0,9.693555E0,0E0,9.146795E-1,0E0,0E0,3.9884825E0,6.5185885E0,6.0745373E0,3.4215882E0,5.725843E0,1.2396479E1,4.627142E-1,4.78778E0,9.9989814E-1,0E0,2.9960396E0,0E0,7.98104E0,0E0,6.0302334E0,1.2241249E0,8.239279E0,3.137836E0,2.3000402E1,6.850823E0,0E0,5.166113E0,0E0,1.1696398E-1,1.9528008E-1,3.5867915E0,0E0,0E0,0E0,0E0,0E0,0E0,0E0,0E0,0E0,0E0,0E0,0E0,0E0,0E0,0E0,0E0,0E0,0E0,0E0,0E0,0E0,0E0,0E0,0E0,0E0,0E0],"parents":[2147483647,0,0,1,1,2,2,3,3,4,4,5,5,6,6,8,8,9,9,10,10,11,11,12,12,14,14,17,17,18,18,19,19,20,20,21,21,22,22,23,23,24,24,25,25,27,27,29,29,31,31,32,32,33,33,34,34,35,35,36,36,38,38,40,40,41,41,42,42],"right_children":[2,4,6,8,10,12,14,-1,16,18,20,22,24,-1,26,-1,-1,28,30,32,34,36,38,40,42,44,-1,46,-1,48,-1,50,52,54,56,58,60,-1,62,-1,64,66,68,-1,-1,-1,-1,-1,-1,-1,-1,-1,-1,-1,-1,-1,-1,-1,-1,-1,-1,-1,-1,-1,-1,-1,-1,-1,-1],"split_conditions":[3.5E0,1.5E0,5.5E0,5.5E0,1.7991667E1,1.4175E3,3.075E2,2.835985E-1,1.4458333E1,1.15E1,1.8125E1,1.4005E3,7.6666665E-1,-5.6589413E-2,2E0,2.0038334E-1,-1.7336796E-1,1.2608334E1,1.5235E3,3.985E2,1.65E1,1.5E0,1.1508333E1,1.35E1,1.5225E1,8.2E1,2.8582048E-1,8.966667E0,2.4240048E-1,9.375E0,2.919196E-1,3.76E2,6.385E2,1.98E3,7.565E2,7.85E1,7.845E2,-6.314358E-1,1.4025E3,-4.1039595E-1,3.9999998E-1,5.195E2,1.453E3,-1.14741094E-1,1.7788522E-1,2.0029564E-1,-1.5941931E-1,-1.8344772E-1,1.376998E-1,-1.8329513E-1,1.3538069E-1,-1.6773756E-1,-2.9267228E-1,4.681441E-1,-1.4245531E-1,-3.0421442E-3,-1.6504034E-1,2.629287E-1,-5.489138E-2,-7.597199E-2,4.0214293E-2,-3.1625745E-1,2.6526248E-1,-1.7101318E-2,-1.5998113E-1,1.5850365E-1,3.0551824E-1,-2.6415983E-1,1.0985619E-1],"split_indices":[3,3,1,1,0,5,6,0,0,4,0,5,0,0,0,0,0,0,6,5,4,1,0,3,0,4,0,0,0,0,0,5,5,6,5,4,6,0,5,0,0,6,5,0,0,0,0,0,0,0,0,0,0,0,0,0,0,0,0,0,0,0,0,0,0,0,0,0,0],"split_type":[0,0,0,0,0,0,0,0,0,0,0,0,0,0,0,0,0,0,0,0,0,0,0,0,0,0,0,0,0,0,0,0,0,0,0,0,0,0,0,0,0,0,0,0,0,0,0,0,0,0,0,0,0,0,0,0,0,0,0,0,0,0,0,0,0,0,0,0,0],"sum_hessian":[5.3456915E2,1.8475267E2,3.498165E2,1.2348216E1,1.7240445E2,3.3425375E2,1.5562749E1,9.047247E0,3.3009691E0,5.8671856E1,1.137326E2,2.9342856E2,4.0825184E1,2.0667503E0,1.3495999E1,1.5731742E0,1.7277948E0,2.290835E1,3.5763508E1,6.154776E1,5.2184837E1,2.861371E2,7.291473E0,3.5183222E0,3.730686E1,2.3191874E0,1.1176811E1,2.0835348E1,2.0730014E0,2.6844656E1,8.918851E0,1.9613668E1,4.193409E1,6.2404823E0,4.5944355E1,8.0601524E1,2.0553557E2,3.0145576E0,4.276915E0,1.1984884E0,2.319834E0,1.9585361E1,1.7721498E1,1.0283307E0,1.2908566E0,1.4680686E0,1.9367281E1,1.0757704E1,1.6086952E1,1.0782973E1,8.830696E0,1.8039356E1,2.3894733E1,2.8316498E0,3.4088323E0,3.0189991E1,1.5754366E1,3.7957516E1,4.2644012E1,6.687133E1,1.3866423E2,1.0870355E0,3.1898797E0,1.0059475E0,1.3138864E0,4.8075056E0,1.4777856E1,1.7042985E0,1.60172E1],"tree_param":{"num_deleted":"0","num_feature":"8","num_nodes":"69","size_leaf_vector":"0"}},{"base_weights":[3.264671E-2,1.5032892E-1,-9.672512E-2,1.19473316E-1,1.0881689E0,-7.14423E-1,-3.5688803E-2,2.0417845E-1,-1.1797008E-1,-1.0170317E0,8.307761E-1,-2.354706E-1,1.6020074E-1,1.4757799E-1,8.8916254E-1,-2.09366E0,-3.2563515E-2,5.5865717E-1,-1.1443133E0,8.910321E-1,-2.883266E-1,3.5777062E-2,6.6915333E-1,1.9229348E-1,-1.2816399E0,9.786987E-1,4.277304E-1,2.6070133E-1,-4.774787E-1,-1.3119973E0,7.848173E-2,-6.197659E-1,-9.5618576E-2,9.0553147E-1,-1.951511E-2,1.0160776E0,2.5444208E-2,2.8251716E-1,-1.00708075E-1,1.5084125E-1,-2.432162E0,-2.0256773E-1,7.2649294E-1,9.879195E-1,-2.4593303E-1,-6.766222E-1,8.222685E-1,-7.396878E-1,-1.6597123E0,-2.003457E-1,-8.2219344E-1,3.1619128E-2,-4.671865E-1,3.5438833E-1,-1.22367196E-1,-6.4527804E-1,2.6492152E-1],"categories":[],"categories_nodes":[],"categories_segments":[],"categories_sizes":[],"default_left":[true,true,true,true,false,true,true,true,true,true,false,true,true,true,true,false,true,false,true,false,true,true,true,true,true,false,true,true,true,true,false,true,true,false,true,false,true,false,false,false,false,false,false,false,false,false,false,false,false,false,false,false,false,false,false,false,false],"id":13,"left_children":[1,3,5,7,-1,9,11,13,15,17,-1,19,21,23,25,-1,27,-1,29,-1,31,33,35,37,39,-1,41,43,45,47,-1,49,51,-1,53,-1,55,-1,-1,-1,-1,-1,-1,-1,-1,-1,-1,-1,-1,-1,-1,-1,-1,-1,-1,-1,-1],"loss_changes":[7.7205195E0,7.5511894E0,9.087375E0,5.215332E0,0E0,1.0983884E1,8.6875515E0,7.2587276E0,1.1490347E1,4.3660183E0,0E0,6.796451E0,7.080859E0,1.1574751E1,1.7420197E-1,0E0,8.824438E0,0E0,3.695568E0,0E0,6.689555E0,4.4040594E0,4.883482E0,4.5952406E0,9.444715E0,0E0,9.2076147E-1,1.528784E1,7.504281E0,1.8498154E0,0E0,3.118081E0,3.2295203E0,0E0,3.3790238E0,0E0,1.5722901E0,0E0,0E0,0E0,0E0,0E0,0E0,0E0,0E0,0E0,0E0,0E0,0E0,0E0,0E0,0E0,0E0,0E0,0E0,0E0,0E0],"parents":[2147483647,0,0,1,1,2,2,3,3,5,5,6,6,7,7,8,8,9,9,11,11,12,12,13,13,14,14,16,16,18,18,20,20,21,21,22,22,23,23,24,24,26,26,27,27,28,28,29,29,31,31,32,32,34,34,36,36],"right_children":[2,4,6,8,-1,10,12,14,16,18,-1,20,22,24,26,-1,28,-1,30,-1,32,34,36,38,40,-1,42,44,46,48,-1,50,52,-1,54,-1,56,-1,-1,-1,-1,-1,-1,-1,-1,-1,-1,-1,-1,-1,-1,-1,-1,-1,-1,-1,-1],"split_conditions":[1.5025E1,1.4691667E1,1.5625E1,1.6745E3,3.2645068E-1,1.409E3,3.5E0,1.534E3,1.6975E3,2.775E2,2.4923284E-1,1.7991667E1,9.85E1,1.506E3,1.2175E1,-6.280981E-1,1.1758333E1,1.6759716E-1,1.3355E3,2.6730964E-1,1.8075E1,2.935E2,1.55E1,1.115E2,9.75E2,2.9360962E-1,1.2333334E1,1.05E1,1.3591667E1,3.05E1,2.3544518E-2,3.985E2,1.185E2,2.7165946E-1,6.195E2,3.048233E-1,1.56E2,8.475515E-2,-3.0212423E-2,4.5252375E-2,-7.2964865E-1,-6.077032E-2,2.1794789E-1,2.9637587E-1,-7.377991E-2,-2.0298667E-1,2.4668056E-1,-2.2190635E-1,-4.9791372E-1,-6.010371E-2,-2.4665804E-1,9.485738E-3,-1.4015596E-1,1.063165E-1,-3.671016E-2,-1.9358341E-1,7.947646E-2],"split_indices":[0,0,0,6,0,6,3,6,6,6,0,0,4,6,0,0,0,0,5,0,0,6,3,4,5,0,0,3,0,4,0,5,4,0,5,0,6,0,0,0,0,0,0,0,0,0,0,0,0,0,0,0,0,0,0,0,0],"split_type":[0,0,0,0,0,0,0,0,0,0,0,0,0,0,0,0,0,0,0,0,0,0,0,0,0,0,0,0,0,0,0,0,0,0,0,0,0,0,0,0,0,0,0,0,0,0,0,0,0,0,0,0,0,0,0,0,0],"sum_hessian":[5.0514767E2,2.644398E2,2.4070787E2,2.5710815E2,7.3316503E0,2.0683409E1,2.2002446E2,1.8960788E2,6.7500275E1,1.7581999E1,3.1014109E0,1.0883E2,1.11194466E2,1.7625899E2,1.3348891E1,1.8226768E0,6.56776E1,1.0607889E0,1.652121E1,4.1667914E0,1.0466321E2,9.02109E1,2.098357E1,1.7175092E2,4.5080624E0,1.0240773E1,3.108118E0,3.983469E1,2.5842905E1,1.4464693E1,2.0565164E0,3.7665707E1,6.69975E1,4.4729824E0,8.5737915E1,1.3259139E1,7.724431E0,1.3134251E2,4.04084E1,2.3950052E0,2.1130571E0,1.1030324E0,2.0050857E0,1.5966526E1,2.3868166E1,2.2825125E1,3.0177796E0,6.64873E0,7.8159633E0,1.2908867E1,2.4756842E1,5.0588985E1,1.6408514E1,1.7968931E1,6.776898E1,1.5864929E0,6.137938E0],"tree_param":{"num_deleted":"0","num_feature":"8","num_nodes":"57","size_leaf_vector":"0"}},{"base_weights":[2.9397158E-2,5.538585E-1,1.2060345E-2,-4.199278E-1,7.259907E-1,-4.607085E-1,3.9175913E-2,9.4768023E-1,-4.8241068E-2,-6.374133E-1,3.6293998E-1,9.567025E-1,2.5399622E-2,6.10366E-1,-6.116638E-1,4.5322612E-1,-9.243307E-1,-4.4194144E-1,6.9863766E-1,1.3213857E0,-4.540381E-1,6.7190886E-3,5.6847477E-1,8.086191E-1,-2.2266033E-1,-2.589016E-1,-9.87722E-1,2.5139305E-1,-3.4009352E-2,-4.196729E-1,8.1036246E-1,-1.1901735E0,3.511341E-1,2.3787673E-1,-9.1573484E-2,-7.8678E-1,6.995805E-2,1.5343796E-1,9.2557305E-1],"categories":[],"categories_nodes":[],"categories_segments":[],"categories_sizes":[],"default_left":[true,true,true,false,true,true,true,false,true,true,true,true,true,false,false,true,true,false,false,false,false,true,true,false,false,false,false,true,true,true,true,false,false,false,false,false,false,false,false],"id":14,"left_children":[1,3,5,-1,7,9,11,-1,13,15,17,19,21,-1,-1,23,25,-1,-1,-1,-1,27,29,-1,-1,-1,-1,31,33,35,37,-1,-1,-1,-1,-1,-1,-1,-1],"loss_changes":[4.3678627E0,2.8816538E0,6.0014157E0,0E0,2.35084E0,3.927579E0,5.5670176E0,0E0,1.835764E0,7.0757504E0,1.6930406E0,3.952343E0,4.4278007E0,0E0,0E0,1.4055102E0,4.6860313E-1,0E0,0E0,0E0,0E0,4.226979E0,3.8093157E0,0E0,0E0,0E0,0E0,9.120928E0,5.715386E0,6.865058E-1,7.662945E-1,0E0,0E0,0E0,0E0,0E0,0E0,0E0,0E0],"parents":[2147483647,0,0,1,1,2,2,4,4,5,5,6,6,8,8,9,9,10,10,11,11,12,12,15,15,16,16,21,21,22,22,27,27,28,28,29,29,30,30],"right_children":[2,4,6,-1,8,10,12,-1,14,16,18,20,22,-1,-1,24,26,-1,-1,-1,-1,28,30,-1,-1,-1,-1,32,34,36,38,-1,-1,-1,-1,-1,-1,-1,-1],"split_conditions":[1.385E2,1.2E1,1.885E2,-1.2597835E-1,5.5E0,1.8891666E1,2.235E2,2.8430408E-1,1.4458333E1,5.2E1,4E1,1.5225E3,5.5E0,1.831098E-1,-1.8349916E-1,1.7691666E1,1.525E2,-1.3258244E-1,2.0959131E-1,3.9641574E-1,-1.3621144E-1,3.255E2,3.075E2,2.4258573E-1,-6.6798106E-2,-7.7670485E-2,-2.963166E-1,3.32E2,8.041667E0,2.465E2,2E0,-3.5705206E-1,1.05340235E-1,7.1363024E-2,-2.7472047E-2,-2.36034E-1,2.0987418E-2,4.603139E-2,2.7767193E-1],"split_indices":[6,6,6,0,1,0,6,0,0,4,4,5,1,0,0,0,6,0,0,0,0,5,6,0,0,0,0,6,0,5,0,0,0,0,0,0,0,0,0],"split_type":[0,0,0,0,0,0,0,0,0,0,0,0,0,0,0,0,0,0,0,0,0,0,0,0,0,0,0,0,0,0,0,0,0,0,0,0,0,0,0],"sum_hessian":[4.801161E2,1.4372808E1,4.657433E2,1.9427453E0,1.2430063E1,2.4396242E1,4.4134705E2,9.489004E0,2.9410584E0,2.0273E1,4.123242E0,5.5161433E0,4.358309E2,1.3175751E0,1.6234833E0,4.101731E0,1.617127E1,1.1204123E0,3.0028296E0,4.4334216E0,1.082722E0,4.2231656E2,1.3514342E1,2.5595114E0,1.5422192E0,1.8487554E0,1.4322515E1,5.9528687E1,3.6278787E2,2.513072E0,1.100127E1,3.144746E0,5.638394E1,6.284184E1,2.9994604E2,1.0893981E0,1.4236737E0,1.9894342E0,9.011836E0],"tree_param":{"num_deleted":"0","num_feature":"8","num_nodes":"39","size_leaf_vector":"0"}},{"base_weights":[2.3855278E-2,7.420886E-2,-1.5990186E-1,6.0173754E-2,1.5499811E0,7.360475E-2,-4.015769E-1,3.8083088E-1,1.9934442E-2,9.028498E-1,-1.9492815E-1,-5.5791825E-1,4.671637E-1,9.8797435E-1,-4.8248366E-2,-1.0313606E0,3.530164E-2,1.6958659E0,-3.0128208E-1,-4.122492E-1,-2.1909647E0,8.866806E-1,-2.4047585E-1,2.1675453E-1,-8.046914E-1,6.9436294E-1,-2.4641104E0,-2.7623208E-2,2.2919695E-1,1.0196786E0,-3.790749E-1,-4.8775995E-1,7.255558E-1,-7.862614E-1,5.974131E-1,-5.283899E-1,7.2278214E-1,5.834746E-1,-1.2215651E0,-4.8528814E-1,6.9901496E-2,-3.0891538E-1,7.688386E-1,-6.3713956E-1,-2.2866163E-2,6.341419E-1,-5.593421E-1],"categories":[],"categories_nodes":[],"categories_segments":[],"categories_sizes":[],"default_left":[true,true,true,true,false,true,true,true,true,false,true,true,true,false,true,true,true,false,true,true,false,false,true,true,true,false,false,true,true,false,true,true,false,false,false,false,false,false,false,false,false,false,false,false,false,false,false],"id":15,"left_children":[1,3,5,7,-1,9,11,13,15,-1,17,19,21,-1,23,25,27,-1,29,31,-1,-1,33,35,37,-1,-1,39,41,-1,43,45,-1,-1,-1,-1,-1,-1,-1,-1,-1,-1,-1,-1,-1,-1,-1],"loss_changes":[4.354843E0,7.551695E0,5.7445364E0,4.7234306E0,0E0,1.1833458E1,7.0407495E0,1.0683541E1,5.3165517E0,0E0,8.628567E0,9.269175E0,2.635014E0,0E0,5.1607766E0,1.3435036E1,3.9483182E0,0E0,4.401103E0,3.8328013E0,0E0,0E0,2.2179735E0,7.624914E0,4.570097E0,0E0,0E0,1.09612055E1,2.3256527E1,0E0,3.4439387E0,3.4521627E0,0E0,0E0,0E0,0E0,0E0,0E0,0E0,0E0,0E0,0E0,0E0,0E0,0E0,0E0,0E0],"parents":[2147483647,0,0,1,1,2,2,3,3,5,5,6,6,7,7,8,8,10,10,11,11,12,12,14,14,15,15,16,16,18,18,19,19,22,22,23,23,24,24,27,27,28,28,30,30,31,31],"right_children":[2,4,6,8,-1,10,12,14,16,-1,18,20,22,-1,24,26,28,-1,30,32,-1,-1,34,36,38,-1,-1,40,42,-1,44,46,-1,-1,-1,-1,-1,-1,-1,-1,-1,-1,-1,-1,-1,-1,-1],"split_conditions":[1.912E3,1.8875E3,6.65E1,3.225E0,4.6499434E-1,1.6291668E1,1.0705E3,2.5E0,3.525E0,2.7085495E-1,2.5E0,1.65E1,1.7875E1,2.9639232E-1,1.11E2,1.15E1,9.85E1,5.087598E-1,3.185E2,7.71E2,-6.5728945E-1,2.660042E-1,1.8866667E1,2.8E1,1.116E3,2.0830889E-1,-7.3923314E-1,9.591667E0,2.5E0,3.0590358E-1,1.8275E1,1.4833333E0,2.1766675E-1,-2.3587842E-1,1.7922394E-1,-1.5851697E-1,2.1683465E-1,1.7504238E-1,-3.6646956E-1,-1.4558645E-1,2.0970449E-2,-9.267461E-2,2.3065159E-1,-1.9114187E-1,-6.859849E-3,1.9024259E-1,-1.6780263E-1],"split_indices":[6,6,4,0,0,0,5,1,0,0,3,3,0,0,4,3,4,0,5,5,0,0,0,4,5,0,0,0,1,0,0,0,0,0,0,0,0,0,0,0,0,0,0,0,0,0,0],"split_type":[0,0,0,0,0,0,0,0,0,0,0,0,0,0,0,0,0,0,0,0,0,0,0,0,0,0,0,0,0,0,0,0,0,0,0,0,0,0,0,0,0,0,0,0,0,0,0],"sum_hessian":[4.683675E2,3.6809683E2,1.00270645E2,3.6566006E2,2.4367802E0,5.1350857E1,4.8919792E1,3.982671E1,3.2583334E2,1.1983369E1,3.936749E1,4.176196E1,7.157831E0,1.5952091E1,2.3874619E1,3.741721E0,3.2209164E2,1.300542E0,3.8066944E1,3.949171E1,2.27025E0,4.334912E0,2.8229196E0,1.820897E1,5.6656494E0,1.931103E0,1.810618E0,2.438217E2,7.826993E1,1.4437493E0,3.6623196E1,3.7569702E1,1.9220077E0,1.7467409E0,1.0761788E0,7.3466144E0,1.0862354E1,1.2161835E0,4.4494658E0,4.2131325E1,2.0169038E2,3.9404575E1,3.8865353E1,2.0779953E1,1.5843245E1,1.7819756E0,3.5787727E1],"tree_param":{"num_deleted":"0","num_feature":"8","num_nodes":"47","size_leaf_vector":"0"}},{"base_weights":[2.4605533E-2,3.2237893E-1,2.9554525E-3,2.4548048E-2,9.393159E-1,-1.606467E0,2.2427086E-2,4.77167E-1,-6.467043E-1,-7.383762E-1,-2.3795187E0,3.964168E-1,-4.12298E-3,7.0950186E-1,-4.2987165E-1,-1.0272863E0,6.539883E-1,9.991021E-1,-4.0789744E-1,-5.636043E-1,2.5358E-2,9.189857E-1,1.9852887E-1,-1.3028055E0,-1.8473399E-1,3.660865E-3,1.138947E0,1.0430562E0,-7.861097E-1,-2.7577257E-1,-1.6930535E0,6.784599E-1,4.9072653E-3,7.929116E-1,-9.386599E-1,1.217638E0,3.195897E-1,-9.8758644E-1,5.442906E-1,4.4349468E-1,-6.373208E-1,-2.0036478E0,-5.599863E-1,9.2059773E-1,-5.5279944E-2,-4.4451767E-1,3.1606868E-2],"categories":[],"categories_nodes":[],"categories_segments":[],"categories_sizes":[],"default_left":[true,true,true,true,false,true,true,true,true,false,false,true,true,true,false,true,false,true,true,true,true,false,true,false,false,false,true,false,true,true,true,true,true,false,false,false,false,false,false,false,false,false,false,false,false,false,false],"id":16,"left_children":[1,3,5,7,-1,9,11,13,15,-1,-1,17,19,21,-1,23,-1,25,27,29,31,-1,33,-1,-1,-1,35,-1,37,39,41,43,45,-1,-1,-1,-1,-1,-1,-1,-1,-1,-1,-1,-1,-1,-1],"loss_changes":[2.9545014E0,5.6845303E0,1.34604225E1,6.985446E0,0E0,1.688674E0,4.214092E0,3.1923277E0,5.2632027E0,0E0,0E0,1.4044111E1,6.5642037E0,1.0254617E0,0E0,1.5153546E0,0E0,2.2748222E0,7.822274E0,6.009112E0,5.0478907E0,0E0,3.8242767E0,0E0,0E0,0E0,5.3617287E-1,0E0,3.403449E0,4.721581E0,2.332592E-1,2.089683E0,4.4263906E0,0E0,0E0,0E0,0E0,0E0,0E0,0E0,0E0,0E0,0E0,0E0,0E0,0E0,0E0],"parents":[2147483647,0,0,1,1,2,2,3,3,5,5,6,6,7,7,8,8,11,11,12,12,13,13,15,15,17,17,18,18,19,19,20,20,22,22,26,26,28,28,29,29,30,30,31,31,32,32],"right_children":[2,4,6,8,-1,10,12,14,16,-1,-1,18,20,22,-1,24,-1,26,28,30,32,-1,34,-1,-1,-1,36,-1,38,40,42,44,46,-1,-1,-1,-1,-1,-1,-1,-1,-1,-1,-1,-1,-1,-1],"split_conditions":[2.705E2,1.51E2,2.78E2,1.075E2,2.817948E-1,2.745E2,3.145E2,2.3458334E1,8.5E0,-2.2151287E-1,-7.138556E-1,1.916E3,3.565E2,1.6925E3,-1.289615E-1,1.56E1,1.961965E-1,2.5E0,6.55E1,3.495E2,1.475E2,2.7569574E-1,5.3E1,-3.908417E-1,-5.5420198E-2,1.0982595E-3,1.8316666E1,3.1291687E-1,3.065E2,1.2191667E1,1.1316667E1,5.5E0,1.885E2,2.3787348E-1,-2.8159797E-1,3.6529142E-1,9.587692E-2,-2.9627594E-1,1.632872E-1,1.3304842E-1,-1.9119625E-1,-6.0109437E-1,-1.679959E-1,2.7617934E-1,-1.6583985E-2,-1.333553E-1,9.482061E-3],"split_indices":[5,5,5,5,0,5,5,0,3,0,0,6,5,6,0,0,0,3,4,5,6,0,5,0,0,0,0,0,5,0,0,1,6,0,0,0,0,0,0,0,0,0,0,0,0,0,0],"split_type":[0,0,0,0,0,0,0,0,0,0,0,0,0,0,0,0,0,0,0,0,0,0,0,0,0,0,0,0,0,0,0,0,0,0,0,0,0,0,0,0,0,0,0,0,0,0,0],"sum_hessian":[4.5743607E2,3.0062908E1,4.2737317E2,2.0976257E1,9.086652E0,4.134497E0,4.2323868E2,1.2701139E1,8.275117E0,2.8684947E0,1.2660027E0,2.7131256E1,3.9610742E2,1.0284566E1,2.4165742E0,6.564537E0,1.7105793E0,1.5371198E1,1.1760058E1,1.8920588E1,3.7718683E2,6.7278457E0,3.55672E0,4.5352306E0,2.0293064E0,2.019834E0,1.3351364E1,2.0681305E0,9.691928E0,1.6069548E1,2.8510385E0,1.0475409E1,3.6671143E2,2.5346565E0,1.0220633E0,1.1737961E1,1.6134025E0,8.6410055E0,1.0509228E0,5.2996745E0,1.0769874E1,1.6346197E0,1.2164189E0,7.6847405E0,2.7906685E0,1.968651E1,3.470249E2],"tree_param":{"num_deleted":"0","num_feature":"8","num_nodes":"47","size_leaf_vector":"0"}},{"base_weights":[1.9310048E-2,-4.7257217E-3,2.682933E-1,8.600426E-1,-1.614916E-2,9.644357E-1,-2.2787969E-3,4.7756232E-2,-1.6160515E-1,-2.6945323E-1,4.12166E-1,2.1439739E-2,6.91042E-1,-7.561607E-2,-6.104092E-1,7.880913E-1,-4.8160326E-1,1.704096E-1,8.2642454E-1,-3.2696486E-2,3.0369934E-1,-8.216367E-1,9.6261626E-1,-1.2614697E-1,9.3250424E-1,4.5192918E-1,-7.9532284E-1,-8.731501E-1,-1.4671868E-1,-1.2208771E-1,4.2342973E-1,3.6780804E-2,-6.9900626E-1,9.3871856E-1,1.7640242E-1,1.0119439E0,2.8902316E-1,-6.5291876E-1,-7.1925305E-2,-5.802737E-1,1.3267552E0,-1.0945318E0,-4.349777E-1,-3.879542E-1,-1.4819431E0,6.062606E-1,-3.3471543E-1,1.4404246E-1,-3.6152557E-1,6.9998586E-1,1.6875179E-1],"categories":[],"categories_nodes":[],"categories_segments":[],"categories_sizes":[],"default_left":[true,true,true,false,true,false,true,true,true,true,true,true,true,true,true,false,true,true,false,true,true,false,true,true,false,true,true,true,true,true,true,false,false,false,false,false,false,false,false,false,false,false,false,false,false,false,false,false,false,false,false],"id":17,"left_children":[1,3,5,-1,7,-1,9,11,13,15,17,19,21,23,25,-1,27,29,-1,31,33,-1,35,37,-1,39,41,43,45,47,49,-1,-1,-1,-1,-1,-1,-1,-1,-1,-1,-1,-1,-1,-1,-1,-1,-1,-1,-1,-1],"loss_changes":[2.6815355E0,4.0584135E0,7.4321647E0,0E0,3.7729716E0,0E0,3.3668652E0,4.7624755E0,4.73427E0,4.5263133E0,1.0530083E0,4.1683044E0,5.3338985E0,5.4712763E0,4.244168E0,0E0,1.9718599E0,7.020252E-1,0E0,1.0638212E1,3.3824754E0,0E0,3.434372E-2,2.836676E0,0E0,3.9931588E0,1.379036E0,1.5462408E0,1.5950308E0,3.612464E-1,2.2949111E-1,0E0,0E0,0E0,0E0,0E0,0E0,0E0,0E0,0E0,0E0,0E0,0E0,0E0,0E0,0E0,0E0,0E0,0E0,0E0,0E0],"parents":[2147483647,0,0,1,1,2,2,4,4,6,6,7,7,8,8,9,9,10,10,11,11,12,12,13,13,14,14,16,16,17,17,19,19,20,20,22,22,23,23,25,25,26,26,27,27,28,28,29,29,30,30],"right_children":[2,4,6,-1,8,-1,10,12,14,16,18,20,22,24,26,-1,28,30,-1,32,34,-1,36,38,-1,40,42,44,46,48,50,-1,-1,-1,-1,-1,-1,-1,-1,-1,-1,-1,-1,-1,-1,-1,-1,-1,-1,-1,-1],"split_conditions":[1.8991667E1,5.95E1,2.0983334E1,2.5801277E-1,1.8008333E1,2.8933072E-1,2.5E0,1.7241667E1,1.397E3,7.84E2,6.65E1,1.3325E3,3.095E2,1.1085E3,4.4E1,2.364274E-1,1.1315E3,2.3325E1,2.4792737E-1,1.2615E3,1.3745E3,-2.4649101E-1,1.2E2,1.8041666E1,2.7975127E-1,1.4855E3,7.9E1,1.114E3,6.45E1,1.25E1,2.34E1,1.1034242E-2,-2.0970188E-1,2.8161559E-1,5.292073E-2,3.035832E-1,8.670695E-2,-1.9587563E-1,-2.1577593E-2,-1.7408212E-1,3.9802656E-1,-3.2835954E-1,-1.3049331E-1,-1.16386265E-1,-4.4458297E-1,1.8187818E-1,-1.00414634E-1,4.321274E-2,-1.0845768E-1,2.0999576E-1,5.062554E-2],"split_indices":[0,5,0,0,0,0,1,0,5,6,4,5,5,5,4,0,6,0,0,5,5,0,4,0,0,5,4,5,4,3,0,0,0,0,0,0,0,0,0,0,0,0,0,0,0,0,0,0,0,0,0],"split_type":[0,0,0,0,0,0,0,0,0,0,0,0,0,0,0,0,0,0,0,0,0,0,0,0,0,0,0,0,0,0,0,0,0,0,0,0,0,0,0,0,0,0,0,0,0,0,0,0,0,0,0],"sum_hessian":[4.4686798E2,4.0842172E2,3.8446255E1,4.3563075E0,4.0406543E2,1.0042903E1,2.840335E1,2.811953E2,1.22870125E2,1.74828E1,1.0920551E1,2.7113657E2,1.0058731E1,1.0409451E2,1.8775612E1,2.4675503E0,1.501525E1,7.787322E0,3.133229E0,2.282444E2,4.2892166E1,1.2227136E0,8.836018E0,9.9959045E1,4.135466E0,2.5695295E0,1.6206083E1,6.1810517E0,8.834198E0,3.8519056E0,3.9354167E0,2.0754782E2,2.0696575E1,6.0980215E0,3.6794147E1,7.765069E0,1.0709484E0,8.298284E0,9.166076E1,1.333196E0,1.2363335E0,7.740983E0,8.465099E0,4.3508015E0,1.8302503E0,1.3204763E0,7.513722E0,2.0129585E0,1.8389472E0,1.048419E0,2.8869977E0],"tree_param":{"num_deleted":"0","num_feature":"8","num_nodes":"51","size_leaf_vector":"0"}},{"base_weights":[1.8191755E-2,5.353285E-1,8.034615E-3,-2.2946183E-1,8.635194E-1,-5.418628E-3,4.9039313E-1,7.4225225E-2,-7.001284E-2,-1.8959379E-1,7.441227E-1,-7.59524E-2,5.069467E-1,-5.1394355E-1,6.7334465E-4,-5.9201276E-1,2.1985446E-1,8.8328844E-1,4.2944968E-2,1.9324124E-2,-1.3245269E0,-6.8988425E-1,6.6790926E-1,-1.7433132E0,-1.8933219E-1,-6.891841E-2,3.687392E-1,3.0628255E-1,-1.692765E-1,6.1949867E-1,-1.6948402E0,7.1224374E-1,-1.6101639E0,9.272117E-1,1.733241E-1,-2.5053368E0,9.157553E-2,-1.76231E0,2.2087295E-1,1.3721694E-1,-2.4230018E-1,8.276147E-1,-6.986557E-2],"categories":[],"categories_nodes":[],"categories_segments":[],"categories_sizes":[],"default_left":[true,true,true,false,false,true,true,true,true,true,true,true,true,true,true,false,false,false,false,true,true,true,true,true,true,true,true,false,false,false,false,false,false,false,false,false,false,false,false,false,false,false,false],"id":18,"left_children":[1,3,5,-1,-1,7,9,11,13,15,17,19,21,23,25,-1,-1,-1,-1,27,29,31,33,35,37,39,41,-1,-1,-1,-1,-1,-1,-1,-1,-1,-1,-1,-1,-1,-1,-1,-1],"loss_changes":[2.2764945E0,2.2937295E0,2.7727432E0,0E0,0E0,2.1467476E0,2.141347E0,1.218467E1,7.229306E0,7.8056765E-1,8.057575E-1,1.6635021E1,9.76262E0,1.2298118E1,5.1412606E0,0E0,0E0,0E0,0E0,7.125878E0,8.186544E0,9.16757E0,5.3627586E0,9.3015995E0,1.7266174E1,6.0665393E0,6.4813547E0,0E0,0E0,0E0,0E0,0E0,0E0,0E0,0E0,0E0,0E0,0E0,0E0,0E0,0E0,0E0,0E0],"parents":[2147483647,0,0,1,1,2,2,5,5,6,6,7,7,8,8,9,9,10,10,11,11,12,12,13,13,14,14,19,19,20,20,21,21,22,22,23,23,24,24,25,25,26,26],"right_children":[2,4,6,-1,-1,8,10,12,14,16,18,20,22,24,26,-1,-1,-1,-1,28,30,32,34,36,38,40,42,-1,-1,-1,-1,-1,-1,-1,-1,-1,-1,-1,-1,-1,-1,-1,-1],"split_conditions":[1.5E0,4.35E1,5.5E0,-6.883855E-2,2.5905582E-1,1.1265E3,3.075E2,7.845E2,1.2835E3,2.465E2,1.9825E3,7.235E2,3.55E0,5E-1,1.121E3,-1.7760384E-1,6.595634E-2,2.6498654E-1,1.2883491E-2,1.1983334E1,5.795E2,2.375E0,1.535E1,1.1958334E1,3.55E1,4.545E2,1.399E3,9.188477E-2,-5.0782952E-2,1.858496E-1,-5.0845206E-1,2.1367313E-1,-4.8304918E-1,2.7816352E-1,5.199723E-2,-7.5160104E-1,2.7472662E-2,-5.28693E-1,6.626189E-2,4.1165084E-2,-7.2690055E-2,2.4828443E-1,-2.0959672E-2],"split_indices":[3,6,1,0,0,6,6,6,6,5,6,6,0,1,5,0,0,0,0,0,5,0,0,0,4,5,5,0,0,0,0,0,0,0,0,0,0,0,0,0,0,0,0],"split_type":[0,0,0,0,0,0,0,0,0,0,0,0,0,0,0,0,0,0,0,0,0,0,0,0,0,0,0,0,0,0,0,0,0,0,0,0,0,0,0,0,0,0,0],"sum_hessian":[4.332197E2,7.3490357E0,4.2587067E2,2.2970345E0,5.0520015E0,4.1527713E2,1.059354E1,1.8590701E2,2.2937012E2,2.9473937E0,7.646147E0,1.3862215E2,4.7284863E1,3.0644234E1,1.9872588E2,1.2615864E0,1.6858071E0,6.16319E0,1.4829565E0,1.2970882E2,8.913329E0,5.2159433E0,4.206892E1,5.4883323E0,2.5155901E1,1.6781009E2,3.0915798E1,5.1193398E1,7.851542E1,1.3185362E0,7.594793E0,2.156453E0,3.0594904E0,2.70253E1,1.5043622E1,3.6196952E0,1.8686372E0,4.521507E0,2.0634394E1,7.6759056E1,9.1051025E1,1.4675316E1,1.6240484E1],"tree_param":{"num_deleted":"0","num_feature":"8","num_nodes":"43","size_leaf_vector":"0"}},{"base_weights":[1.8698093E-2,-1.7165786E-3,2.4051453E-1,7.9793304E-1,-1.049426E-2,9.2794603E-1,1.8402401E-2,-4.7852236E-1,1.7067922E-3,-2.0953418E-1,3.7752533E-1,6.754533E-1,-8.2275605E-1,6.7388386E-1,-1.6353024E-2,7.3780334E-1,-3.819094E-1,-3.152764E-1,4.768325E-1,-3.173985E-1,-1.4463891E0,-3.944024E-1,9.101716E-1,-1.251037E0,1.5286044E-3,-7.270893E-1,-7.806742E-2,7.192271E-1,1.5051226E-1,5.836326E-1,-7.0991045E-1,6.19712E-2,-1.21620275E-1,-3.2999623E-1,-1.2371019E0,4.306601E-1,-3.3195648E-1,8.406205E-1,1.2701923E-1,-5.197474E-2,3.752216E-1],"categories":[],"categories_nodes":[],"categories_segments":[],"categories_sizes":[],"default_left":[true,true,true,false,true,false,true,true,true,true,true,false,true,true,true,false,true,false,true,true,false,false,false,false,true,true,true,true,true,false,false,false,false,false,false,false,false,false,false,false,false],"id":19,"left_children":[1,3,5,-1,7,-1,9,11,13,15,17,-1,19,21,23,-1,25,-1,27,29,-1,-1,-1,-1,31,33,35,37,39,-1,-1,-1,-1,-1,-1,-1,-1,-1,-1,-1,-1],"loss_changes":[1.9259446E0,2.7484581E0,5.4557867E0,0E0,2.2114723E0,0E0,2.3801808E0,4.4642096E0,4.6031876E0,3.194899E0,9.258131E-1,0E0,2.0714178E0,2.863371E0,8.156812E0,0E0,1.5953097E0,0E0,7.0300937E-1,2.4360116E0,0E0,0E0,0E0,0E0,2.725067E0,1.0608733E0,1.3697158E0,2.9726982E-1,2.7594745E-1,0E0,0E0,0E0,0E0,0E0,0E0,0E0,0E0,0E0,0E0,0E0,0E0],"parents":[2147483647,0,0,1,1,2,2,4,4,6,6,7,7,8,8,9,9,10,10,12,12,13,13,14,14,16,16,18,18,19,19,24,24,25,25,26,26,27,27,28,28],"right_children":[2,4,6,-1,8,-1,10,12,14,16,18,-1,20,22,24,-1,26,-1,28,30,-1,-1,-1,-1,32,34,36,38,40,-1,-1,-1,-1,-1,-1,-1,-1,-1,-1,-1,-1],"split_conditions":[1.8991667E1,5.95E1,2.0983334E1,2.3937993E-1,1.28E2,2.7838382E-1,2.5E0,2.5E0,2.705E2,7.84E2,3.325E2,2.02636E-1,1.0308333E1,3.09E2,2.78E2,2.2134101E-1,1.1315E3,-9.458293E-2,2.027E3,1.07E2,-4.3391675E-1,-1.18320726E-1,2.730515E-1,-3.753111E-1,1.6725E3,1.114E3,2.3425E1,1.1455E3,3.5E0,1.7508978E-1,-2.1297315E-1,1.8591361E-2,-3.6486086E-2,-9.8998874E-2,-3.711306E-1,1.2919803E-1,-9.958695E-2,2.5218618E-1,3.810577E-2,-1.5592422E-2,1.12566486E-1],"split_indices":[0,5,0,0,5,0,1,1,5,6,6,0,0,6,5,0,6,0,6,5,0,0,0,0,6,5,0,5,1,0,0,0,0,0,0,0,0,0,0,0,0],"split_type":[0,0,0,0,0,0,0,0,0,0,0,0,0,0,0,0,0,0,0,0,0,0,0,0,0,0,0,0,0,0,0,0,0,0,0,0,0,0,0,0,0],"sum_hessian":[4.2422086E2,3.8937714E2,3.4843704E1,3.2515893E0,3.8612555E2,7.732862E0,2.7110842E1,8.8391485E0,3.772864E2,1.6839373E1,1.0271469E1,1.8098359E0,7.029313E0,8.921429E0,3.68365E2,2.0873768E0,1.4751996E1,1.015089E0,9.25638E0,4.7163754E0,2.3129375E0,1.4946717E0,7.426757E0,4.274276E0,3.640907E2,6.25407E0,8.497926E0,4.6203074E0,4.636073E0,1.2833847E0,3.4329908E0,2.4455678E2,1.1953393E2,4.4423304E0,1.8117393E0,2.59732E0,5.900606E0,3.486218E0,1.1340894E0,2.8429632E0,1.7931098E0],"tree_param":{"num_deleted":"0","num_feature":"8","num_nodes":"41","size_leaf_vector":"0"}},{"base_weights":[1.5522076E-2,5.787911E-3,4.3549743E-1,1.419593E-2,-7.3257E-1,-4.3357968E-1,6.088123E-1,4.1709533E-3,9.372106E-1,-9.4315237E-1,-3.0014452E-1,8.43537E-1,2.256851E-1,5.227503E-1,-6.480991E-3,8.397971E-1,-2.0212077E-1,9.0900505E-1,-9.2048913E-1,-4.2697397E-1,1.5168129E-2,5.938544E-1,-7.72764E-1,-6.101329E-1,7.1465385E-1,3.454037E-1,-2.0446077E-2],"categories":[],"categories_nodes":[],"categories_segments":[],"categories_sizes":[],"default_left":[true,true,true,true,true,false,true,true,false,false,false,false,true,true,true,false,true,false,false,true,true,false,false,false,false,false,false],"id":20,"left_children":[1,3,5,7,9,-1,11,13,-1,-1,-1,-1,15,17,19,-1,21,-1,-1,23,25,-1,-1,-1,-1,-1,-1],"loss_changes":[1.7021322E0,2.5467052E0,1.6846987E0,3.7429624E0,1.3752317E-1,0E0,5.542388E-1,2.2216716E0,0E0,0E0,0E0,0E0,1.3548396E0,5.3493204E0,3.5976005E0,0E0,2.0326571E0,0E0,0E0,4.4821005E0,4.430825E0,0E0,0E0,0E0,0E0,0E0,0E0],"parents":[2147483647,0,0,1,1,2,2,3,3,4,4,6,6,7,7,12,12,13,13,14,14,16,16,19,19,20,20],"right_children":[2,4,6,8,10,-1,12,14,-1,-1,-1,-1,16,18,20,-1,22,-1,-1,24,26,-1,-1,-1,-1,-1,-1],"split_conditions":[1.6475E3,1.6365E3,1.56E2,1.5875E3,1.6405E3,-1.300739E-1,1.2058333E1,1.225E0,2.811632E-1,-2.8294572E-1,-9.004336E-2,2.5306112E-1,4.805E2,1.583E3,1.9916667E0,2.5193915E-1,1.7E1,2.7270153E-1,-2.7614674E-1,1.2365E3,6.05E0,1.7815633E-1,-2.3182921E-1,-1.8303987E-1,2.1439616E-1,1.0362112E-1,-6.133823E-3],"split_indices":[5,5,6,5,5,0,0,0,0,0,0,0,6,5,0,0,3,0,0,5,0,0,0,0,0,0,0],"split_type":[0,0,0,0,0,0,0,0,0,0,0,0,0,0,0,0,0,0,0,0,0,0,0,0,0,0,0],"sum_hessian":[4.1597827E2,4.07546E2,8.432296E0,4.0392706E2,3.6189287E0,1.1523281E0,7.2799683E0,4.005808E2,3.346239E0,1.6394669E0,1.9794618E0,3.7690978E0,3.5108705E0,7.094943E0,3.9348587E2,1.0461284E0,2.464742E0,5.8890247E0,1.2059186E0,1.8349977E1,3.751359E2,1.0121897E0,1.4525523E0,1.6214188E1,2.1357903E0,3.567141E1,3.3946448E2],"tree_param":{"num_deleted":"0","num_feature":"8","num_nodes":"27","size_leaf_vector":"0"}},{"base_weights":[1.3330918E-2,5.76546E-2,-7.1094215E-2,3.464949E-1,-2.7439971E-3,-3.1296656E-1,6.932251E-2,1.07210726E-1,8.396753E-1,-5.250156E-1,3.6552742E-2,-6.4538985E-1,1.4272517E-1,-7.8727543E-1,1.6095509E-1,-5.134645E-1,3.1931826E-1,-3.40687E-1,9.663808E-1,-8.2686657E-1,7.5269574E-1,9.558092E-1,-5.8540544E-3,-4.18479E-1,-2.6545744E0,9.6132815E-1,-4.2840412E-1,-1.5273603E0,4.4518596E-1,7.2342724E-1,-1.1885902E-2,1.8800877E-1,-1.1482556E0,7.1583956E-1,-2.5927785E-1,-1.2006077E0,1.7826328E-1,1.0562463E0,9.372368E-2,-3.7048705E-2,6.7320573E-1,-8.84747E-1,1.9066688E-1,-2.3605182E0,3.091002E-4,5.735335E-1,-2.1731682E0,-2.706646E-1,8.55092E-1,1.0074034E0,8.9847565E-2,-4.1296506E-1,1.2893754E-1,-1.9016813E-1,6.283684E-1,-1.6547276E-1,-1.8315066E0,-5.027289E-1,9.430066E-1,7.405431E-1,-6.25193E-1,-7.9834336E-1,-2.3433468E0,7.4903697E-1,-8.696981E-1,-7.032942E-1,-6.5500755E-3,9.039984E-1,8.0859736E-2,8.593703E-2,-1.4126592E0,5.452499E-1,-9.8507166E-1,8.5921E-1,-5.2702963E-1,5.5557156E-1,-1.0068886E0,-6.3972443E-1,7.397717E-1,2.4367343E-1,-5.482672E-1],"categories":[],"categories_nodes":[],"categories_segments":[],"categories_sizes":[],"default_left":[true,true,true,true,true,true,true,true,true,true,true,true,true,true,true,true,true,false,false,true,false,true,true,true,false,false,true,true,true,true,true,true,true,true,true,true,true,false,false,true,true,true,true,false,true,false,false,false,false,false,true,true,true,false,false,false,false,false,false,false,false,false,false,false,false,false,false,false,false,false,false,false,false,false,false,false,false,false,false,false,false],"id":21,"left_children":[1,3,5,7,9,11,13,15,17,19,21,23,25,27,29,31,33,-1,-1,35,-1,37,39,41,-1,-1,43,45,47,49,51,53,55,57,59,61,63,-1,-1,65,67,69,71,-1,73,-1,-1,-1,-1,-1,75,77,79,-1,-1,-1,-1,-1,-1,-1,-1,-1,-1,-1,-1,-1,-1,-1,-1,-1,-1,-1,-1,-1,-1,-1,-1,-1,-1,-1,-1],"loss_changes":[1.5437604E0,4.717439E0,4.8476825E0,5.428605E0,4.628597E0,8.025834E0,7.2476864E0,4.460131E0,2.5921497E0,6.7088594E0,8.1845455E0,1.277778E1,1.112288E1,8.831343E0,8.056834E0,4.087693E0,5.9070787E0,0E0,0E0,5.188491E0,0E0,7.0262337E-1,4.2944136E0,8.280358E0,0E0,0E0,1.1751755E1,9.128425E0,1.4425192E0,3.4135427E0,3.6855485E0,9.5047927E-1,2.8564005E0,4.643869E0,4.4415936E0,2.6258497E0,3.3191457E0,0E0,0E0,3.9302208E0,1.1442127E0,8.501945E0,6.042375E0,0E0,6.16439E0,0E0,0E0,0E0,0E0,0E0,4.198895E0,4.903881E0,3.891135E0,0E0,0E0,0E0,0E0,0E0,0E0,0E0,0E0,0E0,0E0,0E0,0E0,0E0,0E0,0E0,0E0,0E0,0E0,0E0,0E0,0E0,0E0,0E0,0E0,0E0,0E0,0E0,0E0],"parents":[2147483647,0,0,1,1,2,2,3,3,4,4,5,5,6,6,7,7,8,8,9,9,10,10,11,11,12,12,13,13,14,14,15,15,16,16,19,19,21,21,22,22,23,23,26,26,27,27,28,28,29,29,30,30,31,31,32,32,33,33,34,34,35,35,36,36,39,39,40,40,41,41,42,42,44,44,50,50,51,51,52,52],"right_children":[2,4,6,8,10,12,14,16,18,20,22,24,26,28,30,32,34,-1,-1,36,-1,38,40,42,-1,-1,44,46,48,50,52,54,56,58,60,62,64,-1,-1,66,68,70,72,-1,74,-1,-1,-1,-1,-1,76,78,80,-1,-1,-1,-1,-1,-1,-1,-1,-1,-1,-1,-1,-1,-1,-1,-1,-1,-1,-1,-1,-1,-1,-1,-1,-1,-1,-1,-1],"split_conditions":[1.05E1,9.141666E0,9.958333E0,7.655E2,9.741667E0,7.61E2,7.245E2,4.15E2,2.5E0,1.5135E3,1.0308333E1,7.275E2,1.3005E3,1.6916668E1,1.1255E3,4.925E0,1.2045E3,-1.022061E-1,2.8991425E-1,6.2E1,2.2580872E-1,1.225E2,9.5E0,1.35E1,-7.9637235E-1,2.8839844E-1,1.31E3,1.2075001E1,1.56E2,1.8008333E1,1.2525E3,1.25E2,3.415E2,1.425E0,8.15E1,1.465E3,9.641666E0,3.168739E-1,2.8117104E-2,1.0841667E1,2.0975E3,4.72E2,9.166666E0,-7.081555E-1,1.2795E3,1.7206004E-1,-6.519505E-1,-8.1199385E-2,2.565276E-1,3.0222103E-1,1.064E3,4.5E0,2.154E3,-5.705044E-2,1.8851052E-1,-4.964183E-2,-5.49452E-1,-1.5081868E-1,2.8290197E-1,2.2216295E-1,-1.875579E-1,-2.3950301E-1,-7.0300406E-1,2.247111E-1,-2.6090944E-1,-2.1098827E-1,-1.9650226E-3,2.7119952E-1,2.4257923E-2,2.578111E-2,-4.2379776E-1,1.6357496E-1,-2.955215E-1,2.5776303E-1,-1.5810889E-1,1.6667147E-1,-3.020666E-1,-1.9191734E-1,2.2193153E-1,7.3102035E-2,-1.6448016E-1],"split_indices":[3,0,0,6,0,5,6,5,3,6,0,5,5,0,6,0,5,0,0,4,0,4,3,3,0,0,5,0,6,0,6,5,5,0,4,6,0,0,0,0,6,5,0,0,6,0,0,0,0,0,5,1,6,0,0,0,0,0,0,0,0,0,0,0,0,0,0,0,0,0,0,0,0,0,0,0,0,0,0,0,0],"split_type":[0,0,0,0,0,0,0,0,0,0,0,0,0,0,0,0,0,0,0,0,0,0,0,0,0,0,0,0,0,0,0,0,0,0,0,0,0,0,0,0,0,0,0,0,0,0,0,0,0,0,0,0,0,0,0,0,0,0,0,0,0,0,0,0,0,0,0,0,0,0,0,0,0,0,0,0,0,0,0,0,0],"sum_hessian":[4.1045056E2,2.693548E2,1.4109575E2,4.576396E1,2.2359085E2,5.137383E1,8.972192E1,3.1633312E1,1.4130651E1,1.4781233E1,2.0880962E2,2.9463884E1,2.1909943E1,7.936685E0,8.178523E1,7.6950526E0,2.393826E1,1.2060962E0,1.2924555E1,1.2241995E1,2.539238E0,8.258135E0,2.0055148E2,2.7559666E1,1.9042177E0,8.723415E0,1.3186528E1,4.8093977E0,3.1272876E0,1.8475468E1,6.3309765E1,3.989879E0,3.7051735E0,1.4063271E1,9.874989E0,8.782052E0,3.4599433E0,7.194696E0,1.0634385E0,1.926471E2,7.9043827E0,1.5354326E1,1.2205339E1,1.5763264E0,1.1610202E1,1.1571047E0,3.652293E0,1.2623825E0,1.8649051E0,1.2350046E1,6.125421E0,1.595002E1,4.7359745E1,2.4521484E0,1.5377306E0,2.0289428E0,1.6762308E0,2.0191445E0,1.20441265E1,2.3714538E0,7.503535E0,7.751877E0,1.0301749E0,2.424616E0,1.0353271E0,7.4671273E0,1.8517998E2,5.309527E0,2.5948555E0,5.703812E0,9.650515E0,9.7893E0,2.4160395E0,4.177227E0,7.432975E0,4.645965E0,1.479456E0,1.3700065E1,2.2499547E0,4.1045723E1,6.314023E0],"tree_param":{"num_deleted":"0","num_feature":"8","num_nodes":"81","size_leaf_vector":"0"}},{"base_weights":[1.4588764E-2,4.199529E-2,-1.1530349E-1,-4.3761767E-3,5.458473E-1,-2.1612698E-1,6.3256437E-1,-1.6924925E-1,4.8876826E-2,1.0230205E0,6.2464304E-2,3.6016193E-1,-4.0396243E-1,-7.680055E-1,9.399964E-1,1.0392325E-1,-5.8741057E-1,7.9354125E-1,7.86578E-3,7.025665E-1,1.8442883E0,4.7625807E-1,-1.2270337E0,-6.3425857E-1,7.566345E-1,-1.0466267E0,-7.7267125E-2,2.0551793E-1,-6.9672066E-1,